solver_type L2R_L2LOSS_SVC_DUAL
nr_class 6
label 1 2 3 4 5 6
nr_feature 9408
bias -1
w
0.0001212115299518599 0.0001792463986491905 3.558865645257617e-07 8.336807792359493e-06 -2.656366137004739e-21 -8.058300376818697e-05 
-4.985242299820769e-05 2.953352302738781e-05 3.544675719942862e-21 -1.446778094611926e-06 -1.093470731249161e-20 0.0002451607566672104 
-0.0007738575384360657 -0.0008623459935403956 0.0005757341881557369 -0.0003539927346156417 0.0002625399495552632 0.0001558665128666964 
3.71734779233594e-10 0.0004900937348049698 5.642069093289502e-06 -0.0002979252932598245 -2.212280365147383e-05 5.62388981410437e-06 
-0.0001247183675670415 -7.11154552465405e-05 0.0007005537816938378 -0.0001602977070430628 0.0001347844519538262 0.0003522622843362019 
-3.990178157031316e-08 -4.7952096816476e-05 -1.553776062619607e-20 4.535913124573162e-05 -8.011244232576073e-22 1.212472045708981e-08 
-1.689641089499792e-05 0.0002582772521206562 3.235930556307444e-21 -4.515117524911406e-05 3.1979243524286e-05 -0.0001286777645492008 
-2.408749943754417e-21 1.869490222915784e-20 9.537503657766006e-05 -0.0001199551528652466 4.192813088908787e-20 7.623296525288703e-21 
8.771405473375043e-05 3.571355799929354e-05 1.285370089231613e-05 -9.33733868682598e-05 -6.220398206398768e-22 -7.136789718319342e-05 
9.582609716182476e-07 0.0002124985721520067 2.985657846063491e-11 -6.178849131505984e-05 -2.352893844920824e-06 -9.724530685853811e-07 
-0.0008122710093051784 -0.0002559657835261088 0.000575751180563571 -0.0004366402437797494 0.0001818071733409938 0.0002225021608017686 
0.0001702128191310535 -0.0002880030897035014 4.127944790102519e-05 0.0001075397173064282 -0.0001787506948918765 2.43093580155895e-05 
-0.0008909479510038832 -0.0004513202339440971 0.0006338102409933177 -7.150743468724359e-05 0.0003877935882748907 0.0004498428249710087 
-0.0001779704633346185 0.0001904506444980141 0.0001878966096166503 -0.0002822172857552601 -0.0001808550249824502 -4.222474232170521e-05 
1.065932335276614e-05 0.0003009405418725437 2.230147421243831e-06 -9.556074081676695e-05 3.197908340260169e-05 -0.0002362693575659084 
9.020470606123317e-05 -6.036948745798301e-05 0.0001362533698311398 -9.966279322790263e-05 -9.204389258285594e-21 -6.77409794098533e-06 
-0.0006640879864942146 -0.000107996722635377 0.0002400183753965663 -8.98193998495919e-05 3.161838320554052e-05 0.0005623402288251055 
-0.0005424629479262858 -0.0001932035038890646 0.0003589607654400598 -2.424903204501296e-06 0.000435851730436058 0.0002421877790946059 
-0.0005630712921955654 -0.0001099251768067056 0.0006008890465156858 -0.0004898795864874032 -0.0002671341168203428 0.0003280645873257989 
-4.683239596653881e-05 -7.679511393951898e-05 3.129929943840385e-05 -5.429201995625244e-05 -2.366494488856597e-05 -5.096349130807543e-05 
0.0001179680549682473 4.529506131040054e-05 0.0001010646160560525 -0.0001580916649908248 -0.0003746254675870964 -0.0003575490526200383 
-7.831956972970843e-05 -3.097132252117368e-05 0.0002317258562286677 -0.0002060976533273446 -2.184351458577667e-07 -1.086446157226252e-05 
-4.95810959753844e-05 0.0004138257990640697 1.903124828660574e-06 -8.667501089725858e-05 3.197951611239121e-05 -0.0001921118176783725 
-0.0002746188627313833 -0.000275118820367191 2.38222472984567e-05 0.0001380530077714229 0.0004826892054551375 9.722680919948287e-21 
-0.001146811759205061 0.0001011022505133912 6.51330796361156e-08 2.513391532932163e-05 0.0004020951917540173 0.0001671584801070919 
-9.159216662893015e-05 -0.0005342633289108439 0.0003378667944822895 -0.0001523662843718228 -0.0002693025041862434 0.0006094165765801059 
-0.0005163787238407972 -0.0003387936532496383 0.0006274780901456633 -0.0004209378705967763 -0.0002930283842195873 0.0002018980163398478 
-0.0002077662573469611 -8.815425871457419e-05 9.570561973740507e-06 0.0003344918005571351 -0.000240285639123525 0.0001007731852168487 
-7.860685976917102e-05 -6.684769850119861e-05 0.000225786652922136 9.647547956485682e-05 3.632340957933982e-05 -9.032695022251665e-05 
-2.337362778186469e-05 -0.0001239064085942576 4.331447699531897e-06 -2.856781401149795e-06 -2.287788410569301e-06 -5.673429757283212e-05 
-0.000122277477131073 0.0001183761714452921 4.874054197109446e-05 -0.000256663187008897 0.0005333595402448395 -0.0002832548007789882 
-0.0002696070953785962 0.0001856179189685693 0.0001570334347219202 -6.478475430498999e-10 4.891899707873037e-05 -0.000172646476706014 
0.0005113083216935649 -0.0004628599595450809 0.0001362463906871914 0.0003136631511465595 -4.151994887118365e-05 -5.563559625271986e-05 
-2.673285503582204e-05 -0.0001211842543413738 0.0002665163476574527 -0.0001654565947493795 -0.000239195226428912 0.0002270051945221469 
-0.0004312542393196271 -0.0002724131242975985 0.0005128938744963749 -2.772737058188329e-06 -0.0004896879850865754 0.0002049261459666508 
-7.229238447703463e-05 0.0006000965278006812 -1.601536147714689e-05 -0.0002629476493545202 -2.662719529529299e-06 -2.195679745789848e-05 
-0.000850066144619005 -2.426310905140579e-05 4.213393230644907e-05 -7.18850309080565e-05 6.20867761316505e-05 0.0005969566499800412 
-0.0004752240806878335 1.407296894041012e-06 0.0002245824508915516 -6.461597402922828e-05 5.771562415268055e-06 -9.473359303157333e-05 
-0.0003246347473482792 -2.1586017260298e-05 0.0001074825960772086 -2.830201501243195e-05 0.00053587495450675 -0.0001868604647702182 
0.000197600426359465 7.536088064570775e-05 -0.0001375090197107551 0.0001813872335486902 -4.386886169534792e-05 9.430945216640662e-05 
-0.0004191261391253765 0.0001228446102726053 6.426895797652466e-06 -7.542894822888541e-05 -4.707232476040029e-09 0.0001004463018685359 
-0.0001968835623900872 0.0001692076759131617 0.0002994298405547468 -0.0001078312078605692 -0.0004349262290525253 0.0001943752706767927 
-0.0002603747670309556 -0.0002264445894768098 0.0005267551856884254 0.0002182320041686948 -0.0002788109650941447 -1.68971410068178e-05 
0.0001807850616094654 -0.0002527208861556714 1.323546832198917e-11 -0.0001143654690306924 -2.607273290767143e-21 -1.530147478660338e-05 
-0.0003932243710596753 0.0002034830682056123 4.042848368517247e-06 7.510700853520405e-05 2.395491562902033e-05 0.0006460255231205204 
-0.0004318742450991538 -0.0001340865100476052 0.0003190566399260618 -0.000176366093667659 -1.135370548074928e-05 -1.926661123991796e-05 
-0.0003037439986090379 -0.0002560940153581881 0.0001644407506406559 1.564518878439349e-05 0.0005752318625039344 2.025037855504061e-05 
0.0004261045848106811 6.591662577728386e-06 -0.0001709829667287273 0.0002476323989220595 -6.043825906446778e-05 -7.209705176901693e-05 
-0.000490827270347756 0.0001946579243139072 9.938002391601201e-08 -8.791899018360896e-05 5.298939106517519e-06 0.0001817003561279101 
-0.0001290934423233667 -7.72679774752872e-06 9.177940780329178e-05 -5.797478097713774e-05 -0.0003657977187467274 -0.0001630781441360408 
-0.0005174742601588416 4.379701735728464e-05 0.0001896274421763253 -0.0001106149553886771 -0.0003321718980508607 0.0003062273531726186 
-2.200455020676463e-05 0.0002380338404417829 -0.0001820559503682288 1.153200325836272e-05 -4.814593939795861e-05 0.0002546415113733318 
-0.0001517015207879695 -1.616236389102627e-05 0.0001539988482447448 -3.542082331899049e-05 -5.280808158360852e-07 0.0002223072508377317 
-0.000234888706014836 -7.628568522929916e-05 0.0003717136466800835 -9.124826611325831e-05 -6.132548684520952e-05 0.0003374203458506454 
-0.0001248877833592246 7.036906757413133e-06 -0.0001749122954379756 0.0002639554558390183 0.0005501963613691545 -8.675916445703164e-05 
-0.0009246351972332522 0.0002167820655311733 0.0001924576399081772 0.0001099329611549437 1.809320848912579e-05 0.0004620105503724928 
-0.0002167206973953207 0.0002344533115410239 -0.0001069197094630584 0.0002830279801194994 1.296097141517085e-06 0.0001378443131007898 
-8.860212607578996e-05 0.0006027742378140195 -5.626421811111961e-05 4.280967409876649e-05 -0.000141776296314714 -4.606649353564268e-05 
-0.0003685305233511229 -0.0007845678982614923 0.0006465148996141714 -6.257992566497804e-05 -0.0004779533358453618 0.0002989440557725788 
-0.0003597159217772741 -2.673563681283987e-05 -0.000207490645023591 0.000150002367886397 -2.496657043374642e-05 3.615685756772042e-05 
-0.0004425662277403487 0.000297608432758078 -0.000113511534461812 2.554131244721479e-05 4.135212685714293e-05 0.0006363194072212 
-0.0002406570173449118 0.0003187262769870494 0.0001779433898365497 -9.981432495439994e-05 -1.941610823577652e-06 0.000216129124589108 
-0.0005286828812352946 5.612034755583842e-05 -0.0001717683248957555 5.175368851377249e-05 0.0004754510369374046 0.0001008688659363723 
-0.0002172469962214435 -0.0001647700841462508 -3.194983660374982e-07 0.0001145394735889086 5.624497192613721e-06 9.508047857580151e-05 
-0.0003404807265784733 3.81719883424977e-05 -1.48429363299035e-06 0.0001283051302728991 -8.154521546305562e-05 0.000157403786855517 
1.072632157203869e-05 -6.903527108639996e-05 0.0001262046404234109 -0.0002926839446446541 -0.0002978925087056875 -8.123903906033202e-05 
-0.0009012175522115055 4.511431037481749e-06 0.0004258582779039402 -0.0001867674016595719 -0.0003326074455469815 0.0003612585450830196 
-0.0003061269375539582 -0.0001240463078364607 -0.0001261401521702145 0.0001741755560780697 3.986398859615699e-05 0.0002035377120020216 
-0.0003686695706599371 9.888945384125655e-05 1.937918739089233e-20 1.932774095184516e-05 2.488159282559507e-21 0.000224448686885983 
-0.000771909208693887 7.574662269626376e-05 -4.246661296094557e-05 0.0003052986228947905 -1.744381233826953e-08 0.0002136177108664734 
0.0004474955229967184 -0.0002058930167744838 -5.971559325129747e-05 0.0002506447298887396 0.00046402446030766 -0.0004245727527129639 
3.01075160886181e-05 0.0002827015774755329 -1.626674391682367e-05 1.841229262648257e-05 -5.69157229286702e-08 -7.607041058964497e-05 
-0.0002375365314830739 -9.234250999728898e-05 0.0001381872476575263 5.364680352602482e-05 -1.59655081395457e-08 -3.350824435630862e-05 
-0.001164251154891245 0.0001451162176325015 0.0001172720839071912 -0.0001519412570988259 -0.0002033519739846025 0.000299048609507324 
5.443393568309482e-06 -0.0001987143326629271 0.000196589819037554 -0.0001995866690271841 -0.0003398361460478199 0.0005344533779691216 
0.0006261553504472143 0.0006224716380096969 -5.957179127056927e-05 -0.0002402402495753143 5.901286656060796e-05 0.0001598604440301923 
3.853136682350786e-05 -0.0002356194646763382 2.009666443161744e-05 0.0002646460767877572 9.068860274481657e-07 -6.205913843427623e-05 
-0.0002095536548538303 7.531373493386208e-06 2.397001893160656e-05 0.0001321857572921848 -1.476649039188077e-06 -4.439218558945116e-06 
0.0007341599972551652 4.30341747721016e-05 -0.0002315925325107916 0.0001248454941867962 0.0004483152354912236 -0.0003483355441929186 
-0.0002100048729774488 0.0001074678432985172 -0.000144333543536685 0.0003053969358926913 -9.150691653226511e-06 1.547505281804658e-06 
-0.0005341212969157383 0.0001358618269219191 0.0001140369791253932 5.592305491785596e-05 -2.410473246394248e-07 -2.719002101259407e-05 
-0.0004068657129554019 0.0006452672756363851 -0.0001547530597311884 -0.0003186421706750781 -6.352428177315088e-06 9.781334604173703e-05 
0.0007105130367373461 -0.0003797572097643809 0.000194704883551835 -5.831953894875688e-05 -0.0003557477860598153 0.0007822141474443895 
0.0004159652967403558 7.238243214723635e-06 8.176325590716382e-05 0.0002872799444821964 6.618970481315812e-06 -0.0001366505540363786 
-0.0003275229116301668 -0.0001387284667830839 -0.0001496061164152347 0.0002312014041829882 7.978555115125853e-05 0.0002669244630360008 
-0.0006705373918534009 0.0003896959699223551 -2.324957033129865e-06 -0.00011455411386396 -1.221878624492878e-05 9.701144860400142e-05 
0.0007808227201219118 2.598336387807565e-05 -0.0001879320156091295 0.0003048807421478417 0.0004493322106851397 -0.0003508330831089476 
0.0002307654532183464 -0.0002208832971429864 -2.670827164492914e-07 0.000112506029767121 -8.6337443152538e-05 9.257755587438487e-06 
-0.0007493067435395107 0.000401326156927299 0.0001362560308198865 -0.0001500520251711702 -1.489232349782763e-06 5.7504534453683e-05 
-0.0003034070401334635 -0.0003185054902543499 9.353938769588976e-05 0.0003274871221837312 -2.212123278874805e-05 0.0003101569682018778 
0.0004708512885181924 0.0001766264237465332 0.0002071301642421034 -6.580545696090484e-05 -0.0003337001127174909 8.539761205404495e-05 
-6.903862021241235e-05 -7.96355303326422e-05 -2.283858370116992e-05 2.769172210317682e-05 2.865353641883688e-21 0.0002021165131201275 
0.0005515254438288975 -0.0001316833708914629 -8.148246175606133e-05 9.049839756833738e-05 7.193327738625551e-06 9.979411473054626e-05 
9.218719331916211e-05 3.098406661647713e-05 -0.0002570379485078249 0.0004957172030062467 7.667002583162821e-05 -7.62266516249226e-05 
0.001382874951550185 -5.382477400819755e-05 -7.755504034291922e-05 -8.082555563144242e-06 0.0003601235553294562 -0.0003187131270115604 
0.0003320810387027592 0.0001954768937410828 -3.202843331805323e-21 -0.0001341720381776253 -6.182855380165236e-05 -0.0002842071305680253 
-0.000474607965599137 -2.954459322381731e-05 0.0001406796327493462 1.353468868313297e-05 -1.095636150075445e-05 0.000218969294924112 
-0.0008387849209262414 0.0001836276780052922 0.0001158765513012689 -8.973669316645129e-05 -9.047303325894839e-10 0.0003099530506945564 
0.0004535083363111326 -0.0002701486101896311 0.0002751932544354263 -0.0001969299222389775 -0.0002162516682190648 0.0003042835057278331 
0.001212738285917833 -0.0005097560713449734 -9.536052973045007e-07 0.0001727835025717846 3.156256211334022e-05 0.00014954489399659 
-3.887429367394494e-05 0.0004355815774601606 -0.0001486639364110036 8.179623570830327e-05 -3.808549653094035e-05 4.869792322846005e-07 
-3.410936024940174e-05 0.0001706697127795597 -5.848328897218203e-05 0.000429008432163766 2.308538586065145e-06 -4.595606519586903e-06 
0.000526886650676696 -9.478064401707598e-05 -5.787236371723715e-05 2.104065119335604e-05 0.0003465481765301691 -0.0004495994187371896 
0.0005674500518922931 -0.000196999290874631 -0.0001397143337102819 0.0003440157818131135 0.0001949628466253172 -0.0004396721779991023 
0.0002365485805009406 0.0002510635389056856 -2.345798414424118e-06 7.636370870153802e-06 -0.000106448263165863 -6.771971998057571e-05 
-0.0003765425049587216 -0.0003766371395111487 -1.58568776475455e-07 0.0001851646527429842 -1.83291566489567e-06 3.084086529622942e-05 
0.001165551208686921 -0.000295393711682663 0.0002731881263771099 6.269625836490895e-05 -0.0002501358596960057 0.0004681796077246087 
-0.0004008261508875595 0.0006344661754710529 -0.0002076638063490669 -0.0002382289723640451 0.0001181801030027417 0.0002385094554000563 
-0.0001015984478021493 -1.468070082711961e-05 5.745169193836762e-05 9.772302565909521e-05 -8.797543788228707e-05 -4.758380320700982e-05 
0.0001840987162938845 -1.120506166477663e-05 -2.785697965652299e-05 -2.884620798348947e-06 -6.692133322663324e-05 0.0002205998581883144 
0.0009212792828213074 -0.000151094989929815 -0.0002733443940590896 0.0007194198227047337 0.0006834411423157699 -0.0008968771255720902 
0.0001552888884734276 7.783869874873553e-05 -1.335109706767971e-05 4.710098227327573e-05 -0.00013480092939142 1.474803744231031e-05 
-0.0006769773088228002 -0.0002369039172086736 -1.165668388564029e-06 0.0003547904954262044 -3.059886360537042e-06 5.967896258416335e-05 
-0.0005436570300903323 7.439799229408513e-05 -6.576306286314649e-05 0.0002340177096930425 -1.51069772831955e-06 0.0001952813033877262 
0.002233491896753069 -1.074262623657454e-05 0.0005208243721297285 -0.0001627969594948725 -0.0002659807882958896 0.0001813810986690575 
0.0004720284586172759 0.0003573312315098446 -8.763976372196197e-05 -0.0001916146005970141 -0.0003599082864494984 0.0003089322915646709 
-0.001382255580362638 0.0003489156626905547 -0.0001426230642661725 -0.0001182249003422377 0.0002173259820007095 0.0001171378184703276 
-0.0001572338402579137 1.174264661631883e-05 -0.0002410110756697438 0.0002576112566802673 0.0001381819993364155 -6.109455454588741e-06 
0.001918207307491331 -0.0001910397753837847 -7.670157410509607e-05 -7.674644800255981e-05 0.000984616772451421 -0.001513547278268324 
-0.0006860953339071469 -0.0001948034328104604 -0.0001262064855442314 0.0001366067219279152 0.0003383295048933505 0.0004458432014108363 
-0.0003825935293197478 -9.348939510563663e-05 -5.731283581781164e-05 9.756646371540569e-05 -7.844383024055379e-05 1.849423699725533e-05 
-0.0003345685058409753 0.0002548694211379208 -0.0001433969099698698 3.674739678872096e-05 -8.292542788951644e-05 9.892453145530972e-05 
0.00168799781968195 0.0001679098093285302 -0.000144312338376191 -0.0004930409654485015 -0.0001359481278353944 0.0005018507733708686 
-0.0005482676458796596 -0.0002430522917147182 0.0006408729793340117 0.0002236083744565437 -0.0003951661886315159 0.0001967114572696387 
-0.0006213227905810678 0.0002120815754160512 0.00018450808504003 0.0001007669296101594 -1.132339512671126e-05 8.310464162968542e-06 
9.452331879485281e-05 -0.0006041346203106377 0.000137718993808164 0.0003112477380429217 -0.0002149251285853982 0.0001091596245016261 
0.0008113979416678895 1.817330816455438e-05 -0.0001150523831880338 -0.0001579224943441725 0.001496327118357492 -0.0009703043360399632 
-2.874163049039317e-05 0.0003248361493147096 -3.968247967809005e-05 -0.0002976834500082031 0.0004261334240418323 -0.000260264323741753 
-0.000742469235521288 0.0001152355923616972 0.0006639867382582443 -0.0003785858127637672 -4.762336522138603e-05 7.79244178234647e-05 
-0.001110441619478906 0.0003615464252960951 3.701043999162814e-05 3.23992199737356e-05 -0.0004827387844576697 -0.0001619892320646401 
0.001895710453417746 0.0002164660915099596 9.102295292185279e-05 -0.0004428994788270675 -7.330834041394031e-05 0.0005627888091818513 
-0.0001957555034234413 5.306453176331801e-05 -0.0002265476382063346 0.0004372969782639972 -7.313882287271929e-05 -4.151851427268571e-05 
-0.0007050737122643562 1.608642254389408e-05 -6.527336902043171e-05 0.000153005881655973 -6.98091053255472e-05 0.0001985105160649015 
4.327229324044956e-05 5.555136262368005e-05 -0.0002719765169393577 0.0001042241678502946 0.0001496765698118791 1.415219366098642e-05 
0.0003160463069722367 -0.0007205243284932536 -8.282841441113361e-05 0.0003397042446266996 0.001618052705425804 -0.0004572352571521129 
0.0005039486266780421 -0.0002969299796269371 0.0002787443588366622 5.115784120652758e-05 0.0001667467193806592 -0.0001997899204481536 
-0.0004511573313465476 0.0001495164186170643 -8.314535403852704e-05 0.0001242902063727887 0.0001955986591713416 2.056593349369737e-05 
-0.0011849212415884 0.0007632034004705503 -0.0001495349823690168 -0.0001553497631180026 -0.0003170993868969619 7.639716857453597e-05 
0.001770605182357401 4.265664854989845e-05 0.0003594334200017376 -0.0002373720323983338 -0.0001042177375446823 -3.500571421080684e-05 
-0.0006073099921299338 0.0002899883500877801 -1.108068552629489e-06 -0.000206362096137182 0.0001133217681544961 8.210320267335424e-05 
-0.0006800974325059721 -0.0005532707821463903 -5.026247780764486e-07 0.000198331145472121 -7.744057791896154e-05 0.0001928872367459639 
-0.0001561956990698917 -0.000310593097691895 -8.836596140938145e-05 0.0002792312007348679 0.0003624193062541116 -0.0001516080924338446 
0.001637817218761086 -0.0004891924192147064 -6.200215440477361e-05 0.0002622222985803289 0.0006769177000650171 -0.0003972202481014334 
-0.0001429314313147291 -0.0002027269054394295 -9.231118648387258e-05 0.0003162623697906677 0.0004903694885107565 -1.343092796435797e-06 
-0.0001758491335253824 -0.0001135317936561468 -7.060641801861313e-05 7.400613259313184e-05 -6.795853613225669e-05 4.437536108672878e-05 
0.0001722199652256028 0.0002284554857301382 -0.0001976801868129585 -0.0003107624296213648 4.910264406974263e-05 0.0003462815542986281 
0.0003260308762479232 -0.0001522485908333402 0.0005577672673017944 -2.914219670580681e-05 -0.0001540529475466297 0.0001346145858417826 
1.913455765586164e-05 -0.000312848243346315 -9.769860280646329e-05 0.0002804184221918985 0.0001739577269106796 -3.022130753687888e-05 
-0.0003312497570475614 -0.00010481961514039 -3.505170478534283e-05 6.943433556062382e-05 -0.0001302072598548587 -0.0001821219904658302 
-0.0005616202456963316 0.0002096447839489074 -0.0002047331733752548 0.0001286598777574771 0.0002346678980356689 -0.000144884029094519 
0.0008916029205806448 -8.075440576168351e-05 -8.823257303382696e-05 0.0003357811951824367 0.0004375505048725652 -0.0003789012062564074 
3.764913814572009e-05 4.956108017589756e-05 -0.0002286161146110202 0.0004721950467584246 -5.97107088728326e-11 -4.68339765633861e-06 
9.771972650723839e-05 -2.237642893333975e-05 -0.0001351787500404389 -2.911986098588134e-05 -6.772480115940763e-05 -7.117080298293532e-05 
0.001280758775223981 -0.0002058549216079911 -0.000200475654508304 0.0002782552581217149 -0.0001067021882284046 0.0005251851002204913 
-0.0001977010117802448 -0.0006392495903043495 0.0005760209822096763 0.0003321514833891001 -3.698180435467377e-05 -0.0002892978205972469 
-0.0003610875548061648 -0.0001638734518398365 -9.321436023487802e-06 0.0002643113859256496 -0.0001128963105058443 5.540547407501814e-05 
-0.0009509698720734242 0.000350120544883583 1.027311081088109e-05 -9.589987072753128e-05 0.0001408240904806395 0.0002943039727531164 
-0.0001937792433885852 0.0006824759107864237 -0.0001272135960089876 -0.0001865579287824531 0.0002506980934014028 0.0001964117992596886 
0.0008323783461799008 8.845838225632383e-05 -1.066209449659922e-05 -0.0001495314363077656 0.0003221123926349339 -0.0008237796754643496 
1.27179019180028e-21 -1.834260931777735e-06 -7.508111176153057e-05 0.0003530853365893297 -1.091874812121623e-05 3.055607674012853e-08 
7.875270120645136e-05 -0.000177404305835736 -1.884302095153829e-05 9.529699538349099e-05 -7.252248264802935e-05 0.0004889540467021558 
0.001250704146345605 -0.0002033972948302601 -9.988892212403324e-05 0.0002955101033418752 9.11153975614645e-05 -0.0001685956527059332 
-0.0006025061003381851 -0.0005570865914582594 0.0006971947206804539 1.348356724370504e-05 -0.0001483785548084001 0.0003200000394984903 
-0.0004705602627649414 0.0003099054806273756 -9.166435601344539e-05 8.519659617222365e-05 -0.0001361185108996797 7.397652729308704e-05 
-0.0001527110916605989 -5.389598388578123e-06 -6.307030294788199e-05 1.055639861318104e-05 -1.370240103268793e-12 -7.142453710303425e-05 
0.0006202888195288608 -3.440772897155078e-05 4.84396966711053e-21 -1.729534240176893e-06 -1.388794725722067e-05 -0.0005700613516016672 
0.0005113018396284536 0.0002976504924425867 -0.0001720488684984316 0.0004767146152251924 0.0003835517468762111 -0.0002575864767039931 
-0.0004295512519479914 0.0002784362617951625 -1.26400048805817e-07 -0.0001228218729417545 -5.205355991286947e-11 8.610676198555219e-05 
-0.0003935771075903462 0.0001524462417222867 -6.307029148471277e-05 0.0001266239064467323 8.862849891083051e-08 0.0003402750561310721 
0.001067398153528692 0.0002163971947947902 -5.676480224154294e-05 0.0001653661649037233 -3.081352542619645e-08 -4.178553538115027e-05 
-7.898872634315276e-05 -0.000726534142440878 0.0006308919673975155 0.0001239186137009032 -0.0002249409351358904 -9.360258250923357e-05 
-0.0004279058205336985 0.0001732707167126194 -7.680487770461689e-06 -0.0002235777204008839 -0.000131759350533705 0.0002528517608119304 
-0.0007702098810665307 0.0001217214989828433 -2.902710229544011e-06 1.810138920379235e-05 -1.957515858736644e-12 0.0001382281903538343 
0.0007333480958642094 -0.0004976178798556922 -2.18851645184763e-06 0.0001393514850363371 3.656469528530096e-05 -0.0003591069425027974 
-0.0003433043942642305 -2.884859431315416e-05 -0.0001698705828986613 0.0005168036290915188 0.0003973849635617522 -0.0001776905944104858 
-0.0002369140284595539 0.0002595039652562697 -1.353771138512596e-06 -0.0001692768916719915 0.0001099611197849329 3.61398960062412e-05 
5.000781384692872e-05 -0.00045887238833469 -4.084675845142948e-05 0.0002283865214967678 -3.715683537713194e-07 -0.0001187986172475919 
-0.0006222629757818024 2.63484015146714e-05 -6.83477804150575e-05 0.0001061211930533896 -1.519614447328908e-05 6.161076968922363e-05 
-0.001224279080039303 -0.0004469184552895416 0.0007002599635817232 -0.0003782842144703603 -0.0002305493619737502 0.0005588711449190543 
0.0006193197459026208 -4.75542830511386e-05 3.316716759863637e-05 6.598373793056506e-05 -0.0001299321961663962 -0.0001003096850468473 
-9.679690018592785e-05 0.000203613756003855 7.391685953773855e-21 -6.013677894127026e-05 -7.569989169003012e-06 7.58394979485311e-06 
0.0001442461934530696 -3.078165592944671e-07 -0.0002274319800387832 0.0007787914740830088 -2.324608702615464e-05 0.0001282597620452362 
-0.0002997561982043628 0.0002286667228860177 -1.504965952917575e-05 -0.0001346591213187171 0.0005789629734963375 -0.0002370118669516265 
0.000273061201144664 0.0001739916582620661 5.01602323452156e-21 -0.000180546626411232 1.315857009626018e-05 -3.328305362598295e-05 
-0.0002405819869249365 0.00050717720551972 -5.454789309042651e-05 0.0001742943162867773 -1.828174162868373e-10 -1.617798342357752e-05 
-0.0002141788665399254 -0.0004188422088088044 -6.809939073235215e-05 -2.66585140931879e-05 -1.360952671758177e-05 0.0001784501901855714 
-0.0004395900572431681 -0.0001888164900030788 0.0007005549637044723 -0.0002350881384970911 -0.0002320296022803599 0.0001460421014691565 
4.047203211504932e-05 5.083324094968813e-07 3.316728028390662e-05 -2.62760213438769e-05 -0.0001627480529961208 -8.172240397633505e-05 
-0.0003529909847670357 7.04827725902432e-05 4.612359095595682e-20 -0.0002020259191864534 -5.93771828945784e-06 6.618772457911641e-05 
-0.0002235687233956222 1.480291461690809e-05 -1.754865933277533e-05 0.0001209947941137115 0.0001029049719453766 0.0003751216177726968 
0.0005267077547165634 -0.0001124227036754411 -7.983392805778051e-05 0.0004462621950540221 0.0004644325493578565 -0.0001661591767845341 
-0.0003107086126004863 -2.52190007731101e-05 -0.0001045345363057116 0.0002259260082411072 3.19788218619619e-05 -0.0001129688065104011 
-0.0005322294101155666 0.0001447041216727724 -2.495472036428533e-05 -5.045197401318792e-05 3.182217749555709e-05 -9.273931960327429e-05 
0.000232206215731369 0.0002506691023300843 2.593186976811709e-07 -0.0001097981725017938 -7.880541997166811e-08 7.600018616550237e-05 
-0.0008130841002160962 -0.0005179318776451823 0.000700552630671878 2.940802917498092e-05 -0.0002314913470470907 8.508224989269356e-05 
-9.645343277372273e-05 -0.0002046249805128318 7.246962126048132e-05 0.0001133582231469421 -0.0001727374344398853 -0.0001004537321675462 
-0.0004946611223695694 -4.333903464240141e-05 4.341851709302223e-05 0.00032964490844066 -1.829182758508973e-05 0.0001443979092823539 
-0.0006964073952167685 0.000319744183764283 -6.655991701279737e-05 0.000138369362968808 -8.689820771880505e-06 0.0002949478326922149 
-0.0002557713604779371 5.90230419716407e-05 -0.0001054260204962333 0.000190986237792869 0.0004055395260648148 -0.0001371418068849475 
-0.0001313215399618932 -4.992843653104784e-05 0.0001757215302938901 -7.685365696397238e-06 -3.143452771790853e-05 7.823668343555473e-05 
-0.0002684144477644669 1.66383904468061e-05 1.07100039045668e-08 1.558852308628273e-06 3.197370344999088e-05 -0.0003006895324822103 
-1.743524847778402e-05 -0.0002603270594128926 1.645683342318843e-06 9.124657998579169e-05 -5.717681365726196e-06 4.864227677011712e-06 
-0.0006886298618965036 -9.965577631306077e-05 0.000731784017767054 -0.0003229805966516115 -0.000278636246020033 3.994204211033917e-05 
-0.0002185282038591849 -0.0003787424388407558 4.950620466663207e-05 3.780090583911248e-05 -0.0001298207408393399 4.1123264577281e-05 
-0.0001400119764167822 -7.82092964134685e-05 -1.778887371939394e-05 9.295272780016684e-05 -1.93852058274994e-06 0.0001966309525745463 
-0.0004920423093823631 7.211151891400211e-05 -0.000158860938927215 0.0006015105138750077 -1.339635182693284e-07 -0.0001210323083136856 
-0.0005367954666874789 0.0005601085255554296 6.241904902325147e-20 -0.0002170031371695346 0.0004055602537750493 0.0003810448648022251 
-0.0003764310356149096 -2.517049932662592e-05 0.0003534605765078808 -6.905147504423793e-05 -3.878617977904424e-05 6.321452994888612e-05 
-0.0001760095679465743 4.93074283102576e-06 -2.87723106772965e-06 2.89526320985136e-05 -9.071849047487008e-10 1.602959810586554e-06 
0.0001996991334387288 -0.0002761472534234256 0.0003094126514242956 4.466721953280477e-05 -0.0001504816327460779 -6.80822547479879e-05 
-0.0004553724145345805 -0.0002117242092643865 0.0004290499754079972 -0.0001558886396761671 -0.0001238252364985875 -0.0001282638450057958 
-0.0004233746911820476 -3.17038970780945e-05 0.0002145306583605622 -0.00028310267634677 -0.0002069847419774298 5.991500707700392e-05 
-0.0002295472139258615 -8.963852991755702e-05 6.034394544258355e-05 0.0001362749685289242 -4.049876279059623e-21 0.000228722427622818 
-0.0001832785676162343 -0.0001054256260986057 2.734871349521169e-05 -4.034492128008098e-06 8.887228501269729e-21 0.0001423526016873854 
-0.0007265741359149252 0.0001291138246649528 0.0001910294219938504 6.968630249470886e-05 0.0003972975414716485 0.0003667238887822021 
-0.0006527861871348616 0.0004621539478226322 -5.447016716631732e-05 3.82809180113505e-05 -1.685231172075375e-07 0.000147588061722168 
3.513658383334539e-05 -0.000212958148905063 5.961882454549639e-21 7.879233307556229e-05 -1.395180931384314e-07 2.908006268667288e-05 
5.563593101301762e-05 -7.209233199120138e-05 0.000309271867314813 0.0001652488878799565 -0.000183168085122188 -2.210055197845103e-06 
-0.0008625151822259298 -0.0002254270962462329 0.0004241793876064736 -0.0001603867897171431 -0.000130267048322491 7.684052049230329e-05 
-1.607690087948361e-05 0.0002848736235525623 2.442220792647805e-06 -0.0001077804439492775 -0.0002442693360554376 -4.32174951616095e-05 
8.052202159323124e-05 -8.521277386505111e-06 -2.539366761485427e-05 0.0001758071358544946 -7.888343784919013e-05 -7.139556530936544e-05 
-3.909331429655047e-05 0.0003155057099327561 0.0002030597103181124 -0.0002268942113542436 -7.532159704690156e-06 -3.286496017851943e-05 
-0.0009950093624596318 0.000116138487417146 2.224633776290261e-09 1.921241990840144e-05 0.000407223074831942 0.0002394532679503885 
-0.0004877394764528293 4.078305347508344e-05 0.0001659883131217952 -0.0002528373730985482 -1.709947762269619e-20 0.0003038948790366663 
7.35270156925807e-05 0.0005985196004868342 0.0001508719915322385 -0.0003082902953881596 3.160185387546759e-05 -0.0002466843693139068 
-0.0003884185765453323 -0.0001084424659544336 3.981715956452245e-05 0.0005150073065911126 -0.0002225606476437804 6.586097838359498e-05 
-0.0005779959571930654 -0.0001667773975872395 0.0005531086802047319 -0.0006774702906964972 -0.0001971898357995168 0.0001424417471398987 
0.0001445820219512173 -0.0002903656385003856 9.776611225638783e-05 8.016943544678312e-05 -0.0001734518078940361 -0.0001397985210370252 
-0.001117003788232171 0.0005601040663800563 -1.142639602925978e-06 -0.000311970152529722 -4.651732535677801e-08 0.000232429580842959 
-0.0001345912153527255 4.715680677892835e-05 1.40157482990985e-20 8.870846578542521e-06 2.773105030177161e-21 0.0001526619805674738 
-0.0003597971739735988 0.0001816356891197543 4.419378303265814e-06 -3.126589654517685e-05 0.0004054810887715795 0.0002334363770447989 
-1.472492622360034e-05 -0.0004747936808991649 -1.014082004315371e-05 0.0003410595641353727 -8.979937350947491e-05 1.509501261321229e-05 
-0.000997371169858167 -0.0002149673138690718 6.931420604131249e-05 7.159260128625962e-05 -0.0002647197466098879 0.000231266899867296 
-0.0003018096526745069 0.0005985897137078382 -0.0002788015999795729 -9.609688111334439e-07 9.924266982859759e-05 -0.0003567314500577682 
-0.001134414982644058 -0.0002280208883600298 0.0005902598626387026 -0.000487967408807046 0.0002670014561501529 0.0004842170370817046 
0.0002700324762850462 -0.0002167600095357773 0.0002141912244233711 -0.0001435598704097807 -9.373782685465949e-05 -6.439218379576996e-05 
-7.286979130559295e-05 -7.82333134718148e-05 -5.050702576756352e-05 0.0001386552781883498 0.0005039165641742901 1.178207683597393e-05 
-5.030827723996853e-05 -0.0002489368349405874 -3.113157538850108e-05 0.0003051581719276983 6.974786925047129e-21 -1.323488980084844e-21 
-0.0001269674433837079 0.0002414261841743686 7.27339955058741e-10 0.0001141364852836782 0.0001848905618860001 1.238047949068903e-08 
-4.059036227764363e-07 -7.302561930043679e-05 8.65446381589487e-06 4.322716120168709e-05 -0.0001568678905806769 1.85625579741747e-05 
-0.001081380174075323 -0.0004698179428518875 0.0005170601036599228 -0.0002195543922872175 0.000201580330810509 0.0002337363683778581 
-0.0001754190764674576 -0.0001043897740187933 -7.00208727621559e-05 -1.663527701214301e-05 0.0003125008846445037 -0.0001528804860371977 
-0.000737213576249715 -0.0002683590493995276 0.0006175243762127052 -0.000388616456910161 -0.0001555515528727581 0.0002374813039302509 
9.605286678692091e-05 0.0004976855588746524 3.367228120040704e-05 -0.0003561493691955782 -1.457877079619885e-05 -6.19390280916723e-05 
0.0002012807835214708 -0.0001895808954197798 3.781220388918844e-07 3.424443597986963e-05 -7.348106056688264e-08 -2.128528003439632e-05 
-3.296759639343081e-05 -2.505217942390042e-07 -1.431017990743444e-05 7.459524456185471e-05 1.921705999083194e-20 1.670114592585833e-06 
-7.059327120668036e-05 -5.525474950899246e-05 -3.910733468703508e-05 0.0002566258407532947 7.490947627280219e-21 0.000243488684563065 
-4.120172363071638e-06 8.319016866996497e-05 3.433819990963141e-05 0.0001083918126749536 -6.645267655975303e-05 3.232452556532162e-08 
0.0009137982892602443 0.0001662265298686194 0.0001506263912425321 0.0001642292022804889 0.0003568354291558468 -0.0002285086764623309 
-0.0006973589178925732 -0.0003188813080524865 3.219778543676009e-05 -0.0002048146767935745 -0.0003148964377364418 0.0003684700695771775 
-0.0009578909659316134 -0.0002276663741542669 0.0005826940132661637 -0.0004214637170876112 0.0003353470938359472 0.0003594020448070256 
2.186090990700788e-05 7.489106961979326e-05 6.481635447231348e-05 -4.502292170183048e-05 -2.858498514548907e-08 -5.073171171588904e-06 
0.0002458279379340031 1.899362186614297e-05 3.554745674548415e-21 8.623966300963838e-06 -4.526332311890167e-21 -0.0001859662259984264 
-1.694065894508601e-21 -2.13225136497085e-05 9.899697571034635e-21 0.0001072675371563012 2.223461486542538e-21 2.9778502051909e-23 
-2.170359374295539e-05 0.0001540044450806637 -1.240833144177745e-21 -6.63028922961615e-10 2.124499986353651e-06 -6.339686196496936e-06 
-4.900898826949193e-05 -4.597008417984887e-06 1.731874502634989e-05 -8.851366621481265e-06 -7.34435596997291e-06 0.0001204660922904884 
0.0002959102937919353 2.279214800418368e-05 1.805432766134154e-08 -8.732088961109263e-05 -2.505734055105176e-06 0.0002692787351319463 
-3.329897445194717e-05 -1.796173966282141e-05 0.0001557457694417083 -0.000147114791584009 7.022873322515242e-05 0.0003339718083461335 
-5.110163005865646e-05 0.0004855991048805785 0.0003147610777063079 -0.0005361357628062964 -0.0003225598802117175 0.0002060704384551967 
-0.0006937083168889526 0.0001483432204551997 -0.0002685136973294186 0.0004164781963641062 0.000697306367355199 1.755501885942948e-05 
-0.0003216621290309509 -0.0002134041215115536 0.0007048277942752767 -0.0001131199175880984 0.0001346979132492645 0.0002140375351029133 
-8.927466814712277e-07 -3.755726492063384e-05 4.658681209898652e-21 5.730530610237537e-07 -5.286460655498098e-08 7.268171442950029e-07 
-0.0005357200482208742 -3.228787214399535e-05 6.600944161838293e-07 2.151184279650724e-05 0.0003913498769314663 9.645173141455619e-05 
-1.125804225466032e-10 9.231335636091789e-21 5.67445900211377e-22 -9.958287063562474e-06 2.38228016415272e-21 1.341225651655177e-05 
-0.0003482683507952238 4.251926746491379e-05 3.538346678574149e-08 -4.759001121942978e-06 2.030265945856502e-06 5.672826223726788e-05 
-0.0002166480115369676 -0.0001890278951929217 -4.74139391961371e-05 0.0001678384870267788 -1.120525514096091e-05 3.067536119553919e-05 
-0.0003083998618658612 0.0009549712044840747 0.0001635692235480067 -0.000400726288766926 -7.432490543574614e-05 0.000184158217093477 
0.0004857300710106513 -0.0001468007795598487 0.0001840511952549315 -0.0001496357986077333 -0.0001963652515198826 0.0001669284939988919 
-0.0004508420245212577 -0.0005324828287995641 0.0005200946725333191 -5.585121939381997e-05 -2.745332067606537e-05 2.366006544034796e-05 
-6.254450506564814e-08 -5.834692912641467e-05 0.0001139603163498313 -5.351555518970251e-05 -0.000296110290680251 -6.441945656745643e-07 
-0.0007681302669857322 -7.313563889258288e-05 0.0001369089442187029 7.722715333641346e-05 0.00062757896989613 0.0001011698459943107 
-4.87209160662609e-05 0.0001201228667137575 -7.05419626385222e-21 -2.139946510463573e-05 0.0002341102430510166 -0.0001238201432478806 
-0.0008486974294836552 -0.0004923961502100057 0.0002448335610841044 1.715870682381454e-05 8.715011693853944e-05 0.0005699699823511204 
-0.0001116748563985184 0.0003135287376771553 0.0002672182058972806 -0.0003539700351106851 -8.265877861492254e-05 5.255295795868936e-05 
-9.324708399826463e-05 6.16361196972437e-05 0.0001717787271097354 -0.0001636643415985498 -4.455178120417265e-05 8.040153054427537e-05 
-7.730524169624916e-06 -1.592654371005779e-05 0.0001355861244307099 0.0001812995440057746 -0.000315173667879279 9.689024029547578e-06 
0.0003920657835139479 0.0001506148538862257 -8.528224159954488e-07 -5.068676191573217e-05 -0.0001542256658484021 -0.0001857302077183314 
-4.308968845157022e-05 -2.45053607192718e-05 0.0003457494286963028 -0.0001579965123800458 -0.0002965013459283679 -1.803338559615301e-05 
-0.0002754987629389062 0.0002847232131868237 6.261842752523222e-07 -2.688995160484823e-05 0.0005902958098400992 -5.291165074857585e-05 
-0.001103752825085942 1.366712628031005e-05 2.683699369337872e-05 9.418680983616535e-07 0.0002757940165028562 0.0001536638297818476 
0.0001536463051160274 -0.0001431798960362765 2.397010162048194e-05 0.000127915437790518 6.440295396237188e-05 0.0001819043445970693 
-0.000207653178085281 -1.191346654603831e-05 0.0003915503054221825 -0.0001129601775411994 -6.589017678118117e-05 0.0001921971102442435 
-0.00101981264653611 -0.0001583198261446297 0.0001328501315193583 0.0004373475776985881 -0.0002099320248140216 0.0004149912515349428 
-0.0003529923759980352 0.0001841058175357801 -1.123641558117581e-06 -0.0001692130696268703 -9.275028912776132e-05 -0.0001505427014010256 
-4.03063263743171e-05 -7.626883980164516e-05 1.219420863637818e-08 -9.818036475544136e-05 -3.122564430071264e-05 2.443473313746599e-05 
-0.000188825419372061 0.0001015057139423661 0.000226480111950791 -0.0003770764218959214 -0.0003372019455399447 -2.874719983076835e-05 
-0.001045275561148586 -0.0001519532714843245 1.437479861573303e-05 0.0001189301307390111 0.0002220457531860995 4.975489455663081e-07 
-0.000315142774931512 -0.0001803207657627111 0.0001619876482345594 2.018325656224382e-05 0.0007621932958680798 -6.485933876584396e-05 
0.0005787349506366902 0.0001439105729365262 -4.467583188027688e-08 -0.0001484228030233199 -5.47780693928623e-05 0.000221069143682328 
-0.0002256323411316983 0.0002647088810619383 0.0001278683666340414 -0.0003240283477038082 -3.320014142318402e-05 -0.0001213363379581266 
-0.001032787795309932 0.0001369023804622804 -0.0003173153782400832 0.0001188738228492586 -0.0002029842744253579 0.0004122341052473052 
-0.0001533483876486795 -0.0004010368866921202 0.0007464097547609789 -0.0004405397300305151 -0.0003548808270210146 0.0002417477400474898 
5.541422250047152e-05 -0.000148144353282075 6.219510184777196e-06 0.0002058094519928384 -0.0001185395829489033 0.0002903892431649133 
-0.0004586482880305998 -0.0001351461604900979 0.0003425682386102541 -2.586777546727648e-05 -0.0001062784409525252 2.879460674865978e-05 
-0.0008976059539087959 0.000315629985439038 8.282460687839292e-05 0.000192651730199766 0.0004392568229946015 -5.35623508588015e-05 
0.0002025249315148245 -4.615574545191512e-05 -0.0001388808831287992 0.0001377039013210902 -2.442630386918392e-07 -0.0002298249318051939 
0.0003864176671956205 -1.206100416240893e-05 4.63934947041367e-05 0.0001576982928969342 -0.0001267013830069591 -0.0001035224510187698 
0.0001124094103733675 -0.0003444669626577874 0.0002497691441711234 0.0001841912689294415 -0.0003802745691542831 -0.0002102451140749169 
-0.0008247048285267365 0.0003834151821151525 -0.0002751891884210328 0.0001669465423763678 -0.0002302441990063298 0.000115392103490943 
9.450150535985006e-07 0.0003474798129908335 0.0001873738154474085 -0.0006181189948861604 1.145426931427688e-05 0.0002447189465317811 
-0.000336396326519482 0.0001848991959854515 2.348165643581852e-07 -3.781421271672045e-05 -5.495851243335684e-06 0.0007352565422139467 
-0.0007756665576050874 -9.808297958039485e-06 0.0003799012585380962 -0.0001735637110228689 -0.0001019094166867208 -0.0001056649503786814 
-0.0006910483579620739 -0.0002335331294159745 0.0003050378129682053 -9.591984603682145e-06 0.0004541662839980737 0.0004040359624912545 
-0.000744168298956253 0.0002218688322433763 -0.0001361810695065449 0.0001377149640349434 -2.194102094089403e-05 0.0001737218811013804 
0.0001181311708134209 0.0001858432479899793 -2.787369654822158e-05 0.0001598871694822127 -6.77483505411545e-05 -0.0001535995128876576 
-0.0005286347561073849 0.0002919264381408051 0.000236459294967696 -0.0002261771084289849 -0.0003434263309065359 -7.5674329677921e-05 
0.0003045748844494504 0.000132474563573799 -0.000125694391958965 8.022834907258414e-05 -0.0001404716179471305 0.0005610889336301321 
-0.0005987496672095088 4.247864847448476e-06 -6.788873063365285e-05 0.000131638885318854 -0.0001835062988372292 -4.845317803803552e-05 
-0.0007024251381973299 2.782911096794376e-05 0.0001598996964352143 -9.754141322659471e-05 -2.924353797948938e-07 0.0001685971458914073 
-0.0004387910399454986 -0.0002851650817344357 0.0003956913033804339 -8.868311604108244e-05 -0.000191574259294537 0.0005729093630994649 
-0.0006860712685959872 -6.2187352084062e-05 0.0002707157484849334 0.0001844836575553126 0.0004627354371472148 0.0001206072629163706 
-7.04321883385855e-05 0.000546429858480386 -0.0002039682142803725 -0.0003264106234901829 -1.202176639676622e-05 0.0003182901291580612 
0.0004715004212577963 8.83242579920103e-05 -0.0001556505738268271 0.0005408627110381631 -6.037456071068651e-05 -0.0001257983556440658 
2.319978851052975e-05 0.0001876452370961696 8.856733807805217e-05 -3.648799884604369e-05 -0.0003654081017427158 -0.0001946145749884922 
-0.0005118597210369681 0.0003353303126861561 -0.0003330352030036914 9.250199241455211e-05 3.978942855652032e-05 0.0004874503337502318 
-0.0003385508907504502 0.0002110600014035177 0.0001168319171745354 -0.0001372064523224923 -0.0003166670558864701 0.0003509840817444927 
-0.0005173220395248898 -0.0002707006823742813 -0.0001411880904613522 0.0002231357896027875 -2.747152740139425e-06 0.0004906091709357664 
-0.001028321608308675 2.440739891759026e-05 3.622744058219835e-05 2.709614526813805e-05 5.926279641079508e-05 0.0001681846788187662 
-0.0008409745933197684 -0.0004366511447808935 0.0003140109237285903 7.894281611200333e-05 0.0003207106523486048 0.0003577014402953621 
2.575762022787501e-05 0.0004119098447135632 -1.690056927789476e-07 -0.0002658315195576757 -6.287332648016761e-06 -0.0001948583551537131 
-0.0005080790713905255 -0.000265880371458879 9.217176703165296e-05 0.0002258948120404571 -0.0001844483211334836 2.00771034911838e-05 
-7.366563611614903e-05 0.0004607712864671831 0.0001541955953878364 -0.0002736448547968873 -0.0001186050849543698 -5.64600757356528e-05 
0.000968139094949001 -0.0003903656833894251 -0.0001323969863605289 0.0001652463811866851 -7.213224863745147e-05 0.0001059980353505314 
-0.0003724435600662884 0.000518574002070082 -0.0003346485286818865 0.0002378682019319682 5.805775904784823e-05 0.0003797193353761017 
-0.000304293763582982 3.410526148271935e-05 -7.072193568318546e-05 -9.724078156869581e-05 -4.168054261482414e-05 9.128969370709281e-05 
-0.0008790081581354866 0.0002999826335305371 -7.502101994802756e-05 6.215880446975345e-05 7.388221062544197e-05 0.0002273925374896371 
0.000215021749515736 0.000133377448605045 0.0003138044867708661 -0.0001056235116805243 0.0002604261526980625 -0.0002332428503802936 
-0.0004336293189355331 0.0001022505621869524 -2.536458222938988e-05 3.205574361785471e-06 -0.000189305537876578 9.062822054653286e-05 
-0.0008166554334846383 -3.458956446149209e-05 0.0001362529068704434 -0.000214747533653656 -8.633911764122971e-05 0.0001666549929453465 
0.0001182446867736899 -7.109233759887417e-05 -0.0001158553472276225 0.0002672518688240568 -8.003597859425774e-05 0.0001226679769550598 
-8.497483055505063e-05 -0.000284412909240626 0.0002766427788185707 0.0002480001623782787 -0.0001258238212358968 0.0001879578141090054 
0.001684254050943721 -0.0002448162166579038 -0.0003455894931222821 0.0008549618651748047 -2.953678683214957e-05 -0.0001489452040351634 
0.0003584381640866797 0.000260888959429542 -2.192078538299364e-05 -6.800420590945771e-05 8.679731444850361e-06 0.0001593233321030468 
-0.001630684260117582 0.0003812747569030217 2.376513451403101e-05 -0.0001938419071644172 1.162768142728565e-06 0.0006201356520002572 
0.001023982712852476 -7.720019439538384e-06 0.000313808095675361 -0.0001264164256952426 0.0001573078680500414 -0.0006190388216956677 
-0.0005589394070706185 0.0003054939389785395 -0.0001243249227328002 0.000159926525517232 -3.259022795922184e-05 -0.0001859917822053733 
-0.000566329711777742 0.00011802423843449 -0.0001877471336177168 5.505218453477521e-05 -8.261647475344117e-06 -0.0001052686527418184 
0.0001947908155024369 6.907713125041893e-05 -5.189539234669089e-05 0.0001755363562454893 -0.0001588039957564351 -0.00038340658025786 
0.001593104461367955 6.182844335294151e-05 2.043808858961854e-05 0.0001233284229052062 -3.557729550857839e-07 -6.79668819479085e-05 
-0.0002320947940557843 -0.0001759846593187891 0.0002180930183017237 -2.245144339292546e-05 -3.411779510201187e-05 0.0007284286643016884 
-0.0004425254062347133 -0.0004181056502209149 -0.0001282454139833746 0.0007769954459251997 -6.543490013170646e-05 -4.8347064583952e-05 
0.0001350282963352041 8.9928641960438e-05 -2.231866344129084e-05 0.0002104090208013502 5.078137628681102e-05 1.581306047622364e-05 
0.001376536869175079 0.0004869378596626652 1.119827322079433e-05 -0.0002925529678838906 7.111714931934964e-05 -0.0006047916203750397 
-0.00206683783395168 3.144071053572839e-05 0.0004615832255740735 -0.0003022024932519515 0.0001156164502243698 0.0003223321413456402 
-0.001118194773880106 -0.0003139385140431002 0.0001301250635543654 0.0003111703520557363 -8.777917293741924e-05 0.0005150429775289516 
-0.0002157524741551927 -0.0001139036658687896 0.0001080326183298319 6.778455480276299e-05 -3.480542483145453e-06 6.639558103086558e-06 
0.001491589768569126 -0.0002074220493834738 -0.0001637936736059335 0.0004537389028271566 -8.644247407500035e-05 -0.0006755090647232065 
0.0005711027581102743 0.0004027754409669314 -0.0001043131489532554 -2.445633628484208e-05 -6.943033835180598e-05 0.0003987743024147136 
-2.688463418424793e-05 0.0002289678217889528 -0.0002699872436657301 0.0005555265591004076 3.228559611257524e-05 -0.0002425240262779227 
-0.0007269067569718277 9.9909695666656e-05 -5.105479389744209e-05 -5.313481153929515e-05 -0.0001096329012725801 0.0004123637140734434 
0.0008144094266210464 0.0002021977021183665 0.0001891667320980881 -0.0002779067547169643 -1.839302199327849e-05 -0.0002886538283671749 
-0.0005418938142782053 0.0002976006103961202 0.0001258911545873639 -0.000107171294623065 0.0007430354446509248 -0.0005764215163774295 
-0.0006191226350510055 9.134883041762675e-06 0.0001362551942943608 -0.0001379056156610941 -6.076798112154694e-06 8.920394053465353e-05 
-0.0001417574627589761 0.0002361533262596396 -2.140520132073942e-05 0.0002881144027853347 -8.161215770321253e-05 -0.0002125418552678496 
0.002636008329227149 0.000565190206476305 -0.0001126897695495051 -0.0003398642651043388 -0.0001451006357276699 -0.0001991614806797249 
8.590619460335003e-06 -0.000245977536384664 4.836375134816211e-05 0.0005328460578104712 3.143226534305485e-05 1.27571797026703e-05 
0.0004270299666590473 -4.856182413051758e-05 -7.943826858303195e-05 0.0003537456855756007 1.642321070296786e-07 -0.0001681324208987759 
-0.0006760109845161459 7.220787315989858e-06 -0.0001043984183966096 1.002262594404847e-05 0.0001848384782018138 -0.0002265796721800927 
0.0008082038405613083 -0.0001810199087963753 0.0003318099750672232 -0.0002413968146976782 -0.0003717110445799281 -0.0005529868802933936 
-0.001624411574592081 -0.0001484103552242272 -0.0001761648556781896 0.0004101464657214236 0.0004685357669408967 0.0009008348047972632 
0.0002424552985491764 -0.0003678951424104898 0.0001816986964947069 0.0003387452193613883 -0.000148440602298387 -8.13199981531982e-05 
-0.0001894032753806364 -4.850623057483121e-05 -3.43583849042574e-06 1.77593987004287e-05 -9.176814664413845e-07 -1.332860069814556e-05 
0.000781252550266853 3.446154749008779e-05 2.571207007168789e-06 -0.0001086738091102781 -0.0001290613268151471 -4.607056591705815e-05 
0.0003957409799315456 -0.0002117238604983387 -0.000121200512454884 0.000118152145277269 8.012702795515882e-05 2.063207578686932e-05 
0.0004657464053142486 0.0004942650851768115 -4.01592309404035e-05 5.437826577029764e-05 -5.475148858841553e-06 -0.0004316354317679418 
-0.0007481067175381793 9.603517089770575e-05 -9.667441350483374e-05 0.000292077848414155 -8.673787863571785e-05 0.0001505883929050756 
0.001102139117479813 -0.0005271380746900951 0.0001489724841644598 9.292116318113424e-05 0.0003071775819406108 -0.0004340138135613861 
-0.001374668608301309 0.0002748545029049225 -0.0001870031899748372 3.83300139132073e-06 8.126194571311594e-05 0.0004180068243450876 
-0.0004178116526202136 -3.389082740049427e-05 -0.0001390652319338987 0.0001007697881009879 -0.000131539537819645 0.0003475883735046009 
0.0005178735292023863 -0.0002031597943695212 5.835297603707179e-06 0.0002481309248819025 -1.443061689565933e-07 -7.558996426282312e-05 
0.001933176794107614 -8.591556878383091e-05 -5.152055698260399e-05 -7.733649087215879e-05 -0.0001301106845247979 -0.0004386752316584486 
-0.0007546844866551479 0.0008380252097659343 -0.0002394201765576114 -0.0001732561698796643 -1.871672910036242e-05 0.0001481548575073711 
-0.0001132969310392424 0.0001337150466098497 -0.0002556345817135161 0.0003863302918535246 -0.0002477291854992996 -1.970362185841743e-05 
0.0003510644845093131 7.511905762745668e-06 4.850958471269351e-05 -3.623681190299163e-05 -6.731866543655832e-05 6.576764293509675e-05 
-1.553804340009273e-05 0.000107979426106848 -0.0001146363452528897 -0.0002245711699998509 0.0004366130052467601 -0.0006579617577353082 
-0.0002309222784189173 -0.0006714111330139323 0.0002135956477707254 0.000139504281826462 0.0004499326079889968 0.0004736161776932236 
0.0002546888512124057 0.001047317045282988 0.0001004033037072897 -0.0003713215010822019 -6.87814766671133e-05 -0.0002928788665342492 
0.0004922625713726149 -2.7832486121307e-06 -0.0001540326843853741 0.000372873465326943 9.747171448402198e-10 0.0002146310571854452 
0.00101805634419185 2.801966676757044e-05 -0.0002785699125168163 -0.0002035932971914311 -7.178998526434338e-05 -0.0003553815606854647 
0.0006881672948927193 -8.612306419138507e-05 -0.0001324722226478138 0.0003021996218435176 -0.0001412158909643248 -0.000300029582121632 
-0.000583872865810954 0.0002215007510184136 -0.0001741189811335041 6.262949129058376e-05 -0.0003539791396546426 0.0003402559768162259 
-0.0003067048696111919 0.0001452133219038662 6.761157500775715e-06 -0.0001947425083655259 -0.0001702616504130924 0.0003656820547561036 
8.966461651955879e-05 -0.0002578282054197389 -0.0001589902458232702 9.604344303341305e-06 0.001030776976883477 -0.0009033287982806562 
-0.0007317183991096012 -0.0005730653596460843 0.0002354793748941479 -5.89480254576977e-05 -3.143037425876028e-05 0.0007230202217800146 
0.0008909508755840905 0.0001098480055269924 6.019490321796425e-05 -6.211969359075284e-05 -0.0001319906662890127 -0.0004645105073546588 
-0.000513913893529647 0.0006783844980793139 -0.000210292118184447 -3.205496753120728e-05 -6.626398670459573e-05 0.000205767338675096 
0.002516023767046073 -0.0002554513956126755 -6.872852775793598e-05 -0.0002322399259835396 -0.0001337220753035773 -0.0006679528342191156 
-0.000288597201522939 0.0001268822931667828 -3.241914510670648e-05 0.0001749459931953593 -7.750511595026158e-05 -5.10461411770726e-06 
-0.000655630511168691 9.888878736567112e-05 -2.55623251665429e-05 0.000155368967876321 -0.0001213722690873712 0.0005456616679644815 
-0.0004494205129584057 -0.0004562604948530959 -0.0003118155120154091 2.093492535996625e-05 -0.0001894094992328117 0.0002376966168076975 
-0.001601475203845343 -4.455107502484849e-06 -0.000126110148738246 -0.0001015331368153626 0.0009498648713598246 1.866700943635049e-05 
0.0008965187734854581 -0.0001006878896138653 1.809285595975794e-05 1.530622751502038e-05 -3.774648477425379e-05 -0.0001263833726662433 
0.0003572635621171181 0.0003722754047941302 7.109594393748239e-05 0.0002745029890519273 -0.000151582798230364 -0.0005050856285348271 
-0.0005497934116842623 0.0004592041797641527 -0.0002037414533742033 -1.423910564252888e-06 -6.777104309698137e-05 0.0001265169230292963 
0.0004302065352353148 -0.0003087354842511248 -0.0001302668542260628 -0.0002929127569164104 -4.715689536992404e-05 3.904192708196595e-05 
0.001099679274646412 0.0001973524539942722 3.669460542971576e-05 -2.749398767319685e-07 -0.0002986633568043136 2.50228558186432e-05 
-0.0007175984832104345 -5.696684502467816e-05 0.0001398170656537939 -8.666529871035784e-05 0.0001341404585730491 -0.0003669844802788765 
-0.0005310139800134891 -0.000148483025504802 0.000289056519327476 5.995179783541423e-05 0.0005072111511681757 -0.000300828744016563 
0.0002044315544574266 -0.0002735700113646713 -0.0003922444931261924 -4.938796039616224e-05 0.0004601491086339664 0.0002111970586550732 
0.0002147518643457096 -2.626001230893208e-05 -7.0612411715694e-05 0.000135974854310496 -7.648562447584389e-05 0.0001378957259311275 
0.0002645089889190008 0.0003841272720805626 -0.00024741567009568 5.09166671138644e-05 -7.058297085612132e-05 -1.465869403203635e-05 
6.505256375498303e-05 7.733673444095749e-05 -0.0003223129291920838 8.255787785394994e-05 -0.0001803569777578977 0.0001884522170076615 
0.00030523917597935 -0.0002665979331337987 -4.380642618096399e-05 -0.0002589968768171879 -1.241557311076444e-05 -0.0005616463778892683 
0.0009663343027203633 0.0006245852153926145 -2.163261778353743e-05 -0.0002167207044248962 -0.0001220494800544739 -2.229552194542829e-05 
-0.0008458380143596556 0.000103543419873903 1.958246927758278e-05 0.000214400296663333 8.220987746476205e-05 -0.0001041091658907819 
-0.000335457363901079 -0.0001582751809829758 -0.0002060563719065453 0.0003728948910924858 0.000172096702825611 -3.295461011794291e-05 
5.855311121846932e-05 -0.0004795621336424761 0.0003288567870937218 7.655737790946051e-05 0.0004018373663820111 0.0003578170176506724 
0.0005329732758708646 3.712119816142154e-05 4.51598774833356e-05 0.0001334210042209197 -0.0001463384249533711 -0.0004441179450731199 
-0.0002371969365985842 0.0003104892083436225 -3.069372294347767e-06 -0.0001206215854241429 -1.6312122924654e-07 8.138500187913509e-05 
0.0005570711275147786 -2.908478262169836e-05 -0.0001707158894653623 0.0002872332615369131 7.393890295583888e-06 -0.0001594952396635227 
0.0003913459845977398 0.0004883860365187067 -0.0001658830322668635 -0.0003746189159963992 -1.281706561452095e-05 0.0001958385582581716 
0.0001782564324652996 -0.0001720033362822662 -3.501398304214492e-05 5.26730654743041e-05 -3.034143549391168e-05 2.332416879996477e-06 
-0.0007200161668610332 -0.0001597456149487167 0.0001386793831721708 0.0001776847790744915 -3.153203139797832e-05 6.477566369932451e-05 
-0.0009352882940225019 -4.561165051732845e-05 -0.0004647607435203531 0.0003106159223357503 0.0004813720833404474 -0.0005546247631221634 
0.001211771566970412 -0.0004283319793450116 0.0004903486977251918 0.0001975578531034847 -0.0002203944264384502 3.166311077996137e-05 
0.0005365466872229609 -0.0001013828299545896 -0.0002368174083339553 0.0005157247709618145 0.0001111292172669911 -0.0002300169017327516 
0.0003351296086678607 0.000324873777951121 0.0001015262997763383 -0.0002126216833552855 3.194667942037634e-05 -0.0002008135303669302 
0.001194679064017017 -0.0001687800248733502 -0.0001908343252028998 -0.0001173899261371965 0.0001003084876966205 0.0004761392070390352 
-0.0006752938406855429 7.550573788899336e-06 -0.0001540077630149279 0.0003612438934964242 3.486285922803985e-06 2.459586371410956e-05 
-0.0004338670973533769 2.47949416656922e-06 -7.571517119213673e-06 0.0001308542783293765 -0.0001243447819403749 8.47896083525449e-05 
-0.001246288447514847 -0.0001061062495250258 0.0001120852152311463 7.418693487169008e-05 -5.525955568563865e-07 -0.000235956979684696 
-0.0005626340481830683 -0.0001661203485687954 -6.0055018320479e-05 0.0001235468784693253 0.0004133554859743692 0.00015199872183139 
0.002841937280984262 0.0001752418182633939 0.0003544764978337296 -0.0001205017832554391 -9.362726535769146e-05 -0.0007934356978096893 
-0.0001231632042433283 1.736659800351156e-05 -0.0001513724668125306 0.0005426586100926856 -0.0001750382845711878 0.000258084031355757 
-3.979431765123923e-05 -0.000515812335789856 4.509606506040534e-05 0.0003969618919234525 3.197346961260216e-05 -8.282824607757074e-05 
-0.0002524658067483552 -0.000248434503996034 0.00022943554542846 -2.579902682803447e-05 0.0001116760145379037 0.0003193352393017881 
0.000175735143697747 0.0005376912132339134 -5.259174560136056e-05 -7.069488443255874e-05 -7.888420334514001e-05 2.612704969384131e-05 
0.0002768849366905316 -4.368622256964239e-05 -8.738695283492438e-05 8.505875594458442e-05 -0.0001365034044266109 -6.739719032421546e-05 
-0.0001548482961123541 -0.0001750263251461767 0.0001401194891242629 -0.0001052620288596864 0.0001289067491141965 3.915791152751956e-05 
-0.001126245116129964 -0.0001702057778842065 0.0004375194977452072 -0.0001755074061206381 0.0006987622420785782 0.0004950978093460365 
0.001742450852863928 0.0001426998624285846 -0.0002590374423215947 0.0007260840378718355 -0.0002269122189681892 -0.0006528215608749403 
9.137078713165975e-05 0.0001394874051848422 -7.708342133641336e-05 -2.982340776247898e-05 4.121344683984205e-20 -0.000132739169126605 
-0.0001650995152106812 8.411735173381485e-06 -4.993954491828105e-10 -7.747071508949589e-05 3.196432299760155e-05 -7.431209438925697e-05 
0.00055357318261586 -0.0002382085709257037 -0.0002694619508870683 9.3147012108834e-05 2.932880710984577e-05 0.0001996366258638724 
-0.0003394791151322936 0.0007448407339106387 0.000239676160065271 -0.0002180828558748205 -2.833976727926736e-05 -0.0001798938180300329 
1.92377724183663e-05 -0.0003829181030021478 8.788508550974611e-05 0.00024058694572454 -0.0001626233739366152 1.839035387951081e-05 
-9.389946272875687e-05 0.0001651959669568237 2.39127772823027e-06 -0.0001002485555754566 2.327329049824956e-05 1.051814050953811e-05 
-0.001502552146563085 0.0001413293552561215 -0.0001078234476614528 9.650228730127848e-05 0.0001331166923066497 0.0005918540385202067 
0.001695241201136245 -0.000351949564874479 0.0003485874473847346 0.0002793976254540867 0.0001913530243633141 -0.0007062842268620498 
-0.001476322550297215 3.842420807818184e-05 -0.0001219961770493816 0.0003056855561047192 -1.118934033199697e-06 0.0003041059194203333 
0.0002863781650089925 -0.0002126729146938385 -1.362378377293576e-05 0.0002037008265747245 5.601650417119627e-07 -0.0002047283813452482 
-0.0009079749337846838 0.0001390793576914634 -8.976705065524611e-05 0.0002147610147189949 -0.0001108955530258359 0.0007612938338089515 
0.0003152956881626261 5.794015484899836e-05 0.0001471472358950885 -0.0005137102011415921 9.345518501847385e-06 -9.098316166549887e-05 
-0.0001668532036602586 -0.0002634217290971664 0.0002108349072612623 5.697921066169396e-05 -0.0002396058083850847 0.0001494156553682819 
-8.39441213860604e-05 0.0001755733274280844 -3.252183841013328e-05 0.0001989422644782009 7.815804335088104e-05 1.374951382839547e-05 
0.0007309115124022892 -7.922014167422463e-05 -9.237143772523899e-05 0.0001149733653366884 -7.058508684573129e-05 -0.0004731954198459993 
-0.0002993393106062876 7.825286993644921e-05 0.0003621724281808186 -2.671096420187069e-05 0.0003107047847164169 0.0001583440382596668 
-0.001131998158531285 4.571872559191991e-05 -0.0001060461488111538 0.0002189966404490264 3.164651140869931e-05 7.876372686755691e-05 
-0.001168743615094601 -3.684652669858234e-05 -1.309104472427569e-06 3.46343007119607e-05 7.427589458582277e-05 6.728840457390977e-05 
-8.847983544983313e-06 0.000579575758013048 -5.76784586211717e-05 -0.0001745746428102391 -0.0002839951585705308 0.0001504088869467347 
-0.0003891330255488438 -0.0003771966105528749 0.0003244667745205086 0.0002186119113331274 9.739933862008872e-05 0.0002696231158645009 
-7.772394675585293e-05 -0.00022989629458667 9.806569518465813e-05 1.71747797884055e-05 -0.0002563521260757218 -0.0001180588190772568 
-0.0002352204840102818 -0.0003131496972338792 -6.656068078700873e-05 0.0004500245535219004 -1.162990590274672e-05 -3.939674264047586e-05 
0.0001753853283432404 0.0001832638609874699 -0.0001303691667178901 0.0001734028328996508 -6.811900983826496e-05 0.0001447347267054091 
0.0002405154819602539 -0.0002802958742226248 0.0003737595169121826 1.569810981301974e-05 0.0003225022364073027 -7.585141773191261e-05 
-0.0006035878664086585 0.0003109025604067258 0.0002016471499992118 -7.138190671861349e-05 -7.276029447476843e-06 0.0001771585705829401 
-0.000274697914569045 -0.0003380866798938593 0.000147577247753234 9.531648032188544e-05 -0.0001237723941441847 -0.0001032547828511393 
0.0002113841551535812 -0.00013581150331342 -8.329878469289143e-06 0.0001604809151858075 2.442940642705731e-05 -0.0004858593291162015 
-0.0006640872125602061 -0.0003011577097428214 0.0003341012323253581 0.000100784931531142 -0.0001702465734850733 0.0005011604876324244 
-0.0005165162820888892 -0.000306883527546044 4.379585050504834e-05 6.700029672871853e-05 -0.0001288402948565423 0.000170568621538672 
-0.0003706251262386605 0.0005414030255663341 -0.0001279211659334248 1.863806320781796e-05 -6.617036824420839e-06 0.0004266865298023956 
0.0007260585109485658 2.607598337231774e-05 -7.281863632510113e-07 -5.070901764335455e-05 -0.0001430117620356357 -0.0003208516477098793 
-0.0005757941347162277 0.0003653965817339566 0.0004167805316503736 -0.0002343380846527291 0.0005578906592893963 0.0002770439123985657 
-0.001048041908666054 -0.0001317778667922262 0.0002030620705095331 9.643930157779459e-05 -5.830058886727242e-05 5.053089584608713e-06 
-0.0003706327413568905 -0.0002028175192609016 4.862945370075849e-05 -7.871539702341923e-05 -0.0001683933257171164 7.205668789679097e-06 
2.954715728236776e-05 -0.000343176603773718 3.039969247226628e-05 -2.793016282731558e-05 -4.156724781367558e-05 0.0001249120096609412 
-0.001110242874789934 0.0001935489840861785 0.0004388236434900304 -6.421201307408283e-05 -0.0002058174283721666 5.278125687365908e-05 
9.857196031998399e-05 -0.0003630206156723267 4.198086236447917e-05 9.902171490480506e-05 -0.0003990516250111994 -7.237853050481438e-05 
0.000160945627171882 0.0002339943501004275 5.390144109281963e-11 -0.0002129011052143281 -1.193564934384646e-10 2.435027382178237e-05 
-8.943480424876887e-05 -0.0001780325426196691 -1.028681809770945e-20 0.0001376703610047118 -5.571199613636581e-05 0.0004714912152428771 
-0.00111202088405225 0.0004785600723161502 0.0004167880630014406 -0.0002780406626621804 0.0005424175129605096 0.0002116745260468665 
-0.0004458404680898884 3.909242061519389e-05 0.000109301949613247 0.0001870492057327506 3.181183865091419e-05 2.538440462402328e-05 
0.0001676313258235974 -0.0002152164519023761 3.316702921321688e-05 0.0002102381049341436 -0.0001239942112364092 0.0001922964933013412 
-0.0002881670945644438 -0.0001785648378069554 0.0006100789542687947 -0.0002616977547563723 -5.937447165798852e-05 -4.04210982679337e-06 
-0.0005499042859060706 -8.294143572996475e-05 7.384066842585026e-05 4.881759707131921e-05 -0.0002402450375018569 5.094248220768926e-05 
-0.0001193496679799799 3.528602077375788e-05 0.0001913246965552823 -0.0001018319952849925 -0.0002661822229871945 -7.737910816609075e-06 
8.358503917324697e-05 0.0001371192387028958 -5.576075677339794e-05 0.000203616498308345 3.317706710157023e-07 -3.314998912187047e-05 
-0.0004030533676537164 0.0001630314102516686 -1.549805595679353e-20 -2.88377775848612e-05 3.048778487591253e-05 -3.094468828107188e-05 
-0.001743872510404793 2.85152061700022e-05 1.156384776566417e-09 3.289561785199894e-05 0.0005635632482147739 0.0002923459203288025 
6.43136850566319e-05 0.0002472216255372182 0.0002341513477002997 -0.0004098277279320584 -0.0001832937460063553 -1.759946446867662e-06 
-0.0001312773405009061 6.424317948772746e-05 1.796679428608097e-05 0.0002935850477995739 -0.0001314527098537173 -0.0001130855618950663 
2.535353191150909e-05 0.0003872089810374044 -4.715233815952153e-05 -0.0001452049237530608 -8.517900885357666e-06 3.254261468718073e-05 
0.0002084730248908627 -0.0007297311563762014 0.0006811585601564818 -4.587948738972606e-05 -0.0002984118550776468 -8.735062557758201e-05 
-0.0004155845212853873 -0.0003735151881090042 0.0002137011506878906 -1.948782231459343e-05 -9.445385397221513e-05 0.0002945986906475693 
-1.465688348485094e-05 0.0002486685518615349 6.934403002423674e-07 -9.554307779172867e-05 -3.034489027731366e-07 4.847733318302967e-05 
-0.001103319140142946 2.004035111253989e-05 -1.545669692616588e-20 -1.931569895876624e-05 1.283784310682299e-20 0.0003141233270422138 
-0.0009778788218054526 0.0003304106143374729 1.516251139038489e-05 -7.703032070563928e-05 0.0004808016541003063 7.412036900024098e-05 
-2.069356960426997e-06 2.788269462957047e-05 0.0002776746685433629 -0.000121577388975533 -0.0002132607690819251 -0.0001056454052646255 
-0.0003156154455304272 -0.0002370208966334918 3.289239320723084e-05 2.675426090229186e-05 -0.0001865291320987301 -0.0002178508977203382 
0.0002839552366338255 -0.0001064218422358758 7.033852961049644e-06 8.886695162264857e-05 -0.0002298654594962245 9.289106080084872e-05 
0.0003998226525656292 -0.0004536515897150218 0.0005877803745885672 -7.283652847120543e-05 -0.0001447961907277255 -0.0001305207832409316 
0.0002379423914513946 5.83724104782246e-05 0.0001576827122226353 2.231673417424494e-05 -0.0001720476580734077 9.540158671345297e-05 
7.300515613443734e-05 0.0007023288518598231 -1.421131945551597e-06 -0.0003855494780410839 0.0001624168066795467 7.128213872691377e-06 
-0.0003311938544294787 3.378013475446921e-05 -1.730781505528428e-05 7.616362398853628e-05 0.0003843654488667786 0.0001462533018382399 
-0.001137169832023741 2.666388845594348e-05 1.990527426047606e-20 7.020423518503931e-05 0.0005222260322623909 4.98270831431527e-05 
-0.001244650063103909 -8.191851592852984e-05 7.910090880614695e-05 -1.346664513340182e-05 -0.0001860791307303207 0.0002534665575890735 
-0.00117245753116285 -0.0002105993926655477 0.0006092958356594067 -0.0003804573808978781 0.0002961370946834488 0.0001446031238533394 
0.0004408869617713934 -5.555467090703666e-05 -5.24075626563612e-05 -3.6869121945318e-05 -0.000318835851223528 0.0002368792537043869 
0.0002185552612303648 -0.0001344387390303199 0.000695847616176445 0.0001363416559158837 -0.0001517059224824868 -0.0001137365773985993 
-0.0001378840169921172 -0.0003101468787036365 8.892589873398405e-05 -0.0001989978440644131 -1.457875949966944e-05 8.615685304620435e-05 
0.0001010095219184656 -2.801061156869611e-06 9.627332402730955e-07 0.0001190421991849153 -4.37866883448999e-05 1.011602420862492e-05 
-3.903331032521286e-05 0.000110047947946064 1.177191560208004e-05 -1.873463068670035e-05 9.974310804261032e-05 -7.619314829789329e-05 
-0.0009029421733014881 -0.0003122992052509534 -3.703545641353637e-06 0.0001376308803114665 0.0004455493462356429 6.402475989471971e-05 
-0.0002412180998310223 0.0004977978954979066 5.471719655189235e-05 -0.0002263315528149195 -0.0001737929410011649 2.290181871241292e-05 
-0.0001667633542091611 0.0001610560484806898 0.0002019417871692617 -6.395182148827874e-05 0.0001675181486199531 9.551344394905672e-05 
-0.000401240363767593 -0.0003821298356156576 -3.002093498858628e-05 0.0002992988305009779 -5.775282319159059e-06 0.0003300167293860198 
-0.0002829534905825702 9.701911041234359e-05 0.0006943148593917298 -0.0001985394016612984 -0.0001586666431870608 0.0002047400715876418 
0.0001681784115963437 8.644515220678487e-05 6.472030121796259e-05 -0.0001200069037063151 -4.317265802483982e-13 -0.0001050339500055555 
9.743582155472015e-05 4.952223551090306e-05 3.187144048965278e-06 -8.03003673516136e-06 -3.950759323801711e-07 -5.799775154839935e-05 
-6.497341647576202e-07 -2.98894697750498e-05 9.68793933422106e-21 2.782470144505874e-20 7.993266099887096e-05 2.064642808932357e-21 
-0.0007255335709498736 -0.0002752153208251223 4.759597244630121e-21 0.0001176727244488731 0.0004074955620640624 -1.548011256582731e-05 
-0.0003690593268974587 2.299418432298944e-05 3.595969029056658e-05 8.296516347587572e-05 -0.0001308177717016445 4.41742294863914e-05 
-0.0002363420637554211 0.0004463501808361274 6.874613473839813e-05 -0.000335989665634851 3.59684110477992e-05 0.0001573271780718834 
2.422691133584685e-05 1.705610292856044e-06 0.0001432388473140558 -0.0001326916509560022 5.994205859505755e-05 -6.753401934563458e-06 
-0.0005899340269894755 0.0002187123739076879 -0.0002262749285241688 -4.728131320483285e-05 -0.0002890775573871603 -0.0001357791649573369 
-0.0002510909478378773 -0.0004565890312217955 -0.0001740990266231687 0.0005597177096206542 0.0002057516753204215 -8.790752946447527e-05 
-0.0004138043965686792 -0.0002238609036318675 0.0007354791921632294 0.0001524420079386669 0.0001544538046711074 0.0003519991739446447 
-0.0004037548064762037 6.119334205213703e-05 4.38256663348942e-06 -0.0001821100471202327 -7.261922019996435e-06 2.138467596818139e-05 
-0.000506065975251193 0.0003058341846969379 0.000353556236658821 -0.0003619080303515011 -7.443815412673315e-06 -2.59203822565254e-05 
1.061862509904692e-05 -0.0001795265878625989 -4.526332311890167e-21 0.000143389128656146 -1.13220980228392e-08 0.0001460409885344753 
-3.42890951462907e-05 0.0005343066939372496 -5.611585210233998e-05 6.318200594609611e-05 0.0004817048119987738 -7.189996196588233e-05 
-0.0001083837999087706 -0.0002551024849989844 0.0001608578807948854 -0.0001669917356669512 -4.442111203212987e-05 1.123663572317543e-05 
0.0002973629376844307 0.0001034692627496188 1.115466858524001e-05 -0.0001899409641860886 -6.147949218028629e-07 0.0001877880343972524 
-0.000303049061647553 0.000240803069512426 -0.0002386224211267076 0.0002577042217489892 -0.000101443339854822 0.0006885741766686325 
-0.0001178489539652308 -0.0004155914262001417 0.0004932890078215615 -0.0001159969503255561 -0.0002125685602489227 -0.0006153210794770742 
-0.0002139775124260796 -0.00015456475549343 0.0002640371363882959 2.480551683836008e-05 2.602713140483196e-05 -0.0001687835737120136 
-0.0009139982059472935 0.0001812988383252127 0.0003769417640747509 -0.0003356102071837033 -0.0001571386461376627 0.0003586801718066511 
-0.0007291467749896961 1.428829587101599e-05 -7.611827544366575e-06 1.591256148224296e-05 -4.847276034868095e-06 6.32928332383149e-05 
-0.0004854048846176247 -3.143932513991493e-05 0.0004658660445145554 -0.000252218162872324 0.0004836484824181494 2.526161465481377e-05 
-0.0005907014161134994 0.0004766271456821778 0.0001134029324831614 -0.0005276559811993472 -8.730798890954373e-05 0.0002232809988522838 
0.0001582652753182047 -0.0001416099174684032 -0.0001214825439458076 0.0002044908790061482 -9.940915594785952e-05 0.0002703631359668608 
-0.0004083471339529706 -0.0002488643875688266 0.0001013458435837972 0.0001579501158238927 -0.0001363923692895311 7.091005715861559e-05 
-0.0001631337953853851 0.000209389667496296 -2.527557965494162e-06 0.0003912037557891708 -0.0001524376124787159 -0.0004865248507000589 
-0.000654218117764662 0.0001294942390762416 0.0003880280642391071 -0.0004284619468114453 -0.0003089991808564742 0.0003878289366068427 
-0.000805271704347371 2.343449720041966e-05 0.0006412202785538469 -0.0004023038990032812 -3.71229219431196e-05 0.00016924587417938 
-0.0003188046560123535 -0.000251587778353687 1.072299603630165e-08 0.0001382444815253384 2.731681254895119e-20 1.170466757967977e-05 
-0.0003014464118799394 -0.0001219670998974006 2.41253575618483e-05 3.23383181930481e-05 -3.861663935716934e-05 9.269348851209672e-05 
-0.001051104460435679 0.0001342768111171067 0.0004088422292764157 -0.0003245529312250346 -0.0002401528189285479 0.0002363963167029726 
-0.0003300404561037546 -0.0001632798697955385 -0.0001331372283986908 0.0002743651547389068 -2.917772313149983e-05 0.0002443537789732695 
0.0001338147555456894 1.257416230521405e-05 -2.546747381085331e-05 7.221213408936672e-05 -0.0001143774568518488 -0.0002101316003446747 
-0.0005436999835659045 -9.541204496057315e-05 5.857123777750355e-07 3.879094461733112e-05 2.546099719301404e-06 0.0001035222860072849 
-0.0004092562014987901 2.057255584046546e-05 0.0003126238374315605 -0.0003913534865744604 -0.0002947922596841748 -7.515984037383007e-05 
-0.0009827371343201444 0.0001367287602533901 0.0005250777720182702 -0.0002426149857286658 2.557200378346889e-05 0.0001153303663446537 
5.477676368910422e-05 0.0002513929165132203 -5.299307256193221e-05 0.000338728280622824 0.0002428494469726319 -2.50138686668311e-05 
-0.0001959006106784741 -0.0001658505269351804 -0.0001392669018842925 0.0002822304400337023 -4.076658326645026e-05 0.0002872106150157897 
-0.0009252661448767733 6.699626964766931e-06 3.638969988153185e-05 -3.514838161293577e-05 -0.0001278742655444716 0.0004748752399213446 
-0.0008597020130961877 -0.0003354274151967762 0.0002404134709384047 0.0002406147817572162 -4.691515100611726e-05 -0.0001776903931148539 
-0.0002574374745447272 -3.675712405930971e-05 -4.916249048443891e-05 0.0001693534229845827 -0.0001714068378113717 0.0001245647359754078 
-0.0001824982898333705 0.000478642692600035 0.000106748171372919 -0.0002754068040350212 -0.0001186426056541372 0.0003045639999303071 
-0.0005949560785507826 -3.848898713172544e-05 0.0002637322339013042 -0.0004102000855296357 -0.0001819513027722247 0.0001847689066655919 
-2.391077731971544e-05 0.0002832280541163482 0.0005263295948440126 -0.0002548051762735006 3.908037585213524e-05 -9.699508593877109e-05 
-0.0006092871645220479 0.0004155859545901136 -4.182349790577699e-05 -0.0001942678427930391 -6.625899047150419e-05 -0.0001750003024135039 
0.0004404832120804887 7.544298547898254e-05 -8.80672371244235e-07 9.822255360368104e-05 -6.046428379720114e-05 -0.0001490878192153482 
-0.001138987136071003 6.192124288314505e-05 3.391154071543259e-05 0.0002529848301454887 -2.008727059483494e-05 0.0003253221131007852 
-0.0006734644017327337 -9.547297761917371e-05 5.111542669071463e-05 -2.286398375564639e-05 -0.0001881337401650807 -0.000133131434239103 
-0.0001141874032824833 -4.163534314089582e-05 -0.0002599073395053187 0.000433789039702733 -6.527289470105619e-06 0.0004367651746559438 
-0.000286624953994886 0.0001091479241014296 -0.0001902434333432617 0.0001379016217923292 -6.971463634884016e-05 0.0004462515047837601 
-0.0003587806537358454 0.0005181907873075883 0.0004876605534144407 -0.0007441338603102111 -0.0002843919190334973 8.344106208514921e-06 
-0.0008257010284485009 0.0002978715650738261 0.0002226112012064166 -0.0001572787121080396 -0.0001344069682088442 0.0003144310409315604 
-0.0003370446273325274 -0.0003892094524028343 0.0004080370083073988 -0.000229289215918689 2.805655491944319e-05 1.457720440430158e-05 
0.0001152524288607473 0.0004317806595468281 -3.411508393646443e-05 -0.0001460381499940134 -6.652909033923896e-05 -7.04388462413965e-05 
-0.0006940697551376689 -0.0001764428568819017 1.070244426042485e-05 0.0001255469071399612 -0.0003424167764760459 0.0004924772775813825 
-0.0002036522563322532 -0.0003961261193385229 -2.5136823215335e-05 0.0003016754819192026 -8.612988953159915e-05 -9.290180038406e-05 
-0.0006864133205777735 4.588383634587815e-05 -4.47795843164808e-05 2.29350471641544e-05 -9.572474137792276e-05 0.0001727911366171706 
-0.0006824874118932756 0.0003031126291530609 -2.282190515006477e-07 -4.066824674424567e-05 -2.749683625368421e-06 0.0005377817387472935 
-0.0006572856006275665 -0.0004538687798010836 0.0002097724400371206 7.807629013591679e-05 -2.091809354136222e-05 0.000456837163803596 
8.296799553092112e-05 0.0002724809263734839 0.0001216231277672689 -0.0002250051912448583 -5.992640872238745e-05 5.500556026288134e-05 
-0.0003757403896911771 0.0005971419077309058 -6.594406371310066e-05 -0.0002185267769368818 -0.0001141058179423221 -0.0003114449318754903 
0.0002320520141429792 -5.425562545402505e-05 9.198912697527389e-05 0.0001563889890938045 -1.037396511241632e-05 -0.0004798438427979211 
-0.000337874060881716 -0.000271253165318057 0.0002275000800227745 0.0003003801542488786 -0.000429487952081234 0.0003851333432905057 
-0.0003424970254714143 -0.0001688579051648475 -0.000185195078151108 0.0001924375468379212 -5.146364783746914e-05 -0.0003857205650907547 
0.0004253717236722909 0.0003452800672879092 0.0001397072677547357 -0.0002376484626615312 -9.908823723712473e-05 0.000279413184295853 
-0.0004484436148716946 -0.0001506929974473394 -9.919462994584344e-05 0.0001304251164108836 -2.584471286149278e-06 0.0005335397989909021 
-0.0009524047073171724 0.0003109532558166592 0.0002201769760172057 -0.0004203942618039719 4.751100587636204e-07 0.0003454145782478989 
0.0004410473739359451 0.0002859180658633006 -4.858047855546845e-05 -5.499012459080219e-05 -0.0001743527075156014 0.0002760335775256917 
0.000205535609045705 0.0001477181669977215 -0.0002146036244742475 0.0002276598751421961 0.0001163237414066438 -0.0003743450661198297 
-0.00127458336804093 3.715794097208216e-05 -2.849291358058946e-06 9.235661742089007e-05 -8.778731836809878e-05 7.400068945235377e-05 
-0.0002964672750529697 0.0002014007876979428 0.000254673290850304 -9.78175871698913e-05 -0.0003246283984944174 -2.378208647829501e-05 
7.127811923061823e-05 0.0007250810891847165 -0.0001294804084894309 -0.0003617269526545984 -6.87057542703412e-05 -0.0003461075606123912 
0.0005036244338450349 -6.157284739396263e-05 -0.000216980151777939 0.0002156786029870937 -7.85604713385853e-05 0.0001920733594491081 
-0.0002739661010972797 -9.028084408430714e-05 0.0001015899123713418 0.0001856649577894944 2.599332356886634e-20 -0.0002040424919048179 
-0.0005860769884119094 -1.876943840700654e-05 0.0001555995681921936 1.343838104351644e-05 3.024262383696646e-05 0.0003784440674077511 
-0.0006213376359370552 7.333399372453926e-05 -0.0001218059545754552 3.974807505624672e-05 0.0001189078901081505 0.0003657445404095914 
0.001464598097823926 -0.0001711620517523352 -3.27450367952546e-05 6.001326917035563e-05 -0.0002151812937190456 -0.0004017313370255333 
-0.0002378529097004506 8.126258335626627e-05 8.136690888548309e-05 -0.0001104221170201999 -0.0001895417139759559 -3.32898065833344e-05 
-0.0002776222430583501 0.0003982519402678049 0.0001710120576186963 -0.0002442391971443493 -0.0001949322084857146 -0.0001612875207099069 
-0.0003383870017729448 5.031345273364004e-05 -0.0003197608051116679 0.000117751064754325 -7.015129992981381e-05 -0.0002349484791311762 
0.00213551819465714 -7.29332061083961e-05 -1.228621006586881e-05 0.000376949465097449 -0.0001489151934058051 0.0001117474551692554 
-0.0008866767748219362 0.0003018861294125398 -6.456994500255461e-05 0.0002304554330830386 -2.39860117214683e-07 0.000440919866494526 
-0.0002066130635570209 3.377115082540622e-05 2.390932404314348e-05 6.725795783991772e-05 7.541806205314496e-05 -3.87009829856587e-05 
-0.0005764813105121645 4.821069009390737e-05 -6.631851803644982e-05 -5.495121919551209e-05 0.0001090354325370415 0.0003425934599354151 
0.0003266589459265309 -2.249478357045173e-05 -0.0001278236997666955 0.000202979409711749 -0.0002415581153719715 -0.0004962004666691223 
-0.0007220476443229274 0.0003514445956282645 -0.0001396445611979684 -5.010784629389353e-05 0.0001476941719679882 -2.95218822799899e-05 
-0.0005130129187833732 -0.0001346423363392415 2.167381502555136e-05 0.0001000348190957467 -0.0001174636661338669 -0.0002245651358657811 
-5.501139835048137e-05 -4.082615300683904e-07 -4.967284303779733e-05 7.046317276820505e-05 -0.0001997430601140824 0.0004706726975107817 
0.001058548738162779 7.320873089936918e-05 -0.000171165161168238 8.408713334793457e-05 -4.658132418111084e-05 -0.0003209668305727239 
-3.845912479121304e-05 0.0001943678120022688 -3.700840791488391e-07 -3.668666234949673e-05 -1.560983082761187e-07 -1.900128557710474e-06 
-0.0005529448852795055 5.908386018958235e-05 2.396972004759343e-05 0.0001261873231071233 7.95161027316798e-05 3.414113270751361e-05 
0.0005602065908319743 -9.827242415890651e-05 -5.957290666006639e-05 0.0002305317893748561 3.421192222842296e-05 0.0002710785327482404 
0.0005384549597224862 -7.396388330627919e-05 4.105777463500987e-05 0.0001665761285164255 -9.17709846286975e-05 -7.935556380517989e-05 
-0.000768198758500555 -0.0003842696167244023 8.778448522607855e-05 0.0001696799166562561 0.0001693932244274352 0.0002664518506884306 
-0.0005983454532066198 0.0005446997098888292 -0.0001915897191529694 -0.0003160005212467082 -0.0001292093278707906 0.0001071949430160827 
0.0003141622441762731 -4.305933280507835e-05 -3.538120784798132e-05 0.0001493689202483551 -0.0002924921712705779 -0.0002447080355822252 
0.0009496370538386056 8.691162057146793e-05 -0.0003949139351243993 0.0002222924794934842 0.0003533786060025887 -0.0003446750028841506 
-0.0002551628448843309 0.0003937843216195764 -2.272517709323874e-06 1.06468667302351e-05 -2.63115113303368e-05 0.0001374504584409871 
-0.0001797648232009365 0.0001102555931301443 4.683011607953261e-05 0.0001823811418547023 -8.466111053010092e-05 -5.891724016760776e-05 
0.0006864819060336682 -4.301394015287211e-06 -8.673691771659604e-05 0.0002252032764710132 -6.175677709695706e-05 0.0001158300732255481 
0.0004515425997125514 -0.0001605478011705805 -4.059613571793449e-05 6.077513403213791e-05 0.0003980504785559217 -0.0001046932396895899 
-0.0005178201406480423 0.0001282643310672589 -5.526073642943014e-05 -1.380552742451724e-05 0.0004807561011201854 8.913980468254069e-06 
0.0003179186371456019 -0.0002923395427535855 -8.915088399485667e-05 5.997879519407023e-05 -0.0001687871670930568 4.008172081515915e-05 
0.0007519128356487003 -4.081575803750012e-05 -0.0001152762936733068 -3.034123804039671e-05 -0.0001450282866675087 -0.0006239535455098289 
-9.344532887496715e-05 0.0002666789332457746 -4.946720196945562e-05 -0.0001107390705571439 0.000481544938769305 0.0003050146786691369 
0.0003116452911005415 0.0003576322194439642 4.842945268595832e-06 -0.0002327356635155788 7.96623685896502e-05 -0.0003186238258560961 
0.0003243613706597983 -0.000305144653481209 -9.300012974379525e-05 0.0004154765767618808 5.506213083086771e-05 7.508670884199811e-06 
0.0009204166633624997 0.0001781749852343355 3.444775402336051e-05 0.0002905240664944476 -0.0001137540867468195 0.0001215764484393826 
-0.001987867644127511 0.0003167813255127738 -0.0001243703093455053 0.0001828332263062105 5.170380384010321e-05 0.000316140756233547 
-0.0001471613988073744 -0.000119767660325933 -7.870600352431582e-06 0.0001763131692904537 -0.0002358978710212592 -7.609140230674785e-05 
-0.0001297961181669842 0.0005563225686970564 -3.752919078521474e-05 -7.894760730443322e-05 6.429059600838487e-05 0.0002677796286283329 
0.001198341457397472 0.0001432724018005275 -0.0001566582215987888 -0.0003216941670770867 0.0007641248655990783 -0.0008919583954278042 
0.0007063030700179854 0.0002484645113339533 -9.295810343122062e-05 -0.0001458298239475222 -0.0003723034716233182 -5.520706577090147e-05 
-0.0002611059896504122 8.141457814927744e-05 -0.0002428485160991184 0.0005779644346998218 4.563796193142669e-05 0.0001975817047242535 
-0.0001044284657814663 -2.381467044711423e-05 -9.8523388312741e-05 4.881785255844188e-05 -2.857014751789846e-06 -1.111827262478733e-05 
-0.0004303974622743698 -5.846067281455202e-05 -4.281142001621136e-06 -1.454382057718155e-05 0.0001439163767068805 0.0009335574750819803 
0.0001575447176653854 -0.0001502956105650871 -0.0001026947640446726 0.0001179438459474071 0.0001805253896378276 -0.0004196553012994137 
0.0008704091975171726 -0.0005468340244862389 -3.907003052000889e-05 -7.986525483237876e-05 0.0002883579799755553 0.0002127199706427044 
-0.0003887173494879718 -0.0005765152675241809 -7.449442763519166e-05 0.0001157957448625225 -9.377579832135201e-05 0.0002612971685199348 
0.0001394714583178637 0.0001896688246131397 -0.0001383263720041428 -6.831382034019417e-05 0.0003127641442533851 -0.0005191806600952937 
-0.0002245820106904151 0.0002202324841885605 -9.565748678296331e-05 -1.231373022978474e-05 0.0002863580302372326 -0.0003099217139588885 
-0.0005574233132977588 -0.0002950384006040881 -5.325975381411323e-05 0.000417293517775756 -6.342939130023605e-05 5.088444357644096e-05 
0.001073103863550758 0.0005047698660464221 -0.0002049001821319881 -8.054561659726826e-05 1.510171787364135e-05 -0.0002916932739135251 
-7.697546037977537e-05 0.00042566979668838 -5.284944061177127e-06 -0.0001843616262002751 -0.0001125315525581667 0.0006615064241236745 
0.0001815962521059908 0.0002446729393068632 -0.0001821530560428324 0.0001849336426514811 0.000406251147365773 3.391442874846275e-05 
-0.0003022072150914888 -0.0001873538542050951 4.937908541491795e-05 0.0001606822646081815 0.0002350326009969709 -9.634691535156645e-05 
0.0003217023455513939 -0.0002378200699856885 -0.0001870895143752477 6.234955897253676e-05 0.0004570948020713729 -7.417664381842194e-05 
0.0008402430572139687 -9.385480669921384e-05 -0.0001511900412592686 8.079962832645923e-06 0.0006396529960352917 -0.0003391380380765202 
-0.00032593319881161 0.0001908124796949361 7.699790422520461e-05 -0.0004214348752924436 0.0001159381129177954 -0.0002269128951535192 
-0.0004389686377017448 -0.0002851712340913537 -0.0001366588809660453 0.0001773409073070279 -0.0001621811716521531 0.0001868392686148713 
-0.0002006787304296652 0.0002453549652714642 -0.0001956834805958223 2.202699865611946e-05 0.0001498245844075708 4.943137366520033e-05 
0.0009555498204713286 -4.974790927211931e-05 -5.447012545976103e-05 9.674373462417798e-05 -0.000169496813220171 0.0006888688843779393 
-0.0001419517279741741 0.0004968280153268361 -7.514984022112778e-05 -4.565677251053122e-06 -8.572269539967e-07 -0.000119094547072246 
-6.695478743827313e-05 -0.0002350117347129955 0.0001094310102452984 0.0001207805150416326 7.287715697742432e-05 -5.019905341796985e-05 
-0.0002665595888702937 0.0003281513199085547 -0.0002789646281206812 -7.277755901903813e-05 0.0005566058769109781 -4.217779042202796e-05 
0.0002049103130282566 -0.0001223447920849434 -8.454395588391719e-05 -0.0001306382321350675 0.0004567736275336626 -0.000660985979498044 
0.0004544963308710936 -0.0004164089714071922 -0.0001712693487871133 -8.37129033899075e-05 -0.0001364315409029765 7.542042577087769e-05 
0.0002697498387770393 0.0002716259131247601 -0.0002041801838001393 0.0001369752694943966 -9.443310084038232e-05 -0.0001509148236128308 
0.0003344298497856174 1.355423697104558e-06 -0.0001037605799835457 0.0003080434324076756 -9.127356408142376e-05 0.0006259224391945819 
0.0005224878274012424 -5.34862344530633e-05 -2.805994028658367e-05 1.04673318870646e-05 0.000144009798692521 7.903428493258229e-05 
-0.0004292553230985249 0.0005971819516606214 -0.000103090428966792 -0.000309773310277301 8.933888184415653e-05 0.0001525106272471293 
-0.000258839546472955 7.904559366837401e-06 -0.0001660566920423942 0.0001743165506903405 0.000136193319757204 8.351569186444807e-05 
-0.0001460358241526836 8.011579010713098e-05 -6.37426968924003e-05 -8.260795702855781e-05 0.0002034520307116732 -4.600102170092397e-05 
0.0003926253799323661 0.000110610417679539 -5.407859697788806e-05 -2.698840920484208e-05 0.0003364404096369519 -0.0003469193424068033 
0.001681909787451146 -0.0004001129163760551 -1.646289631237394e-05 0.0001584860237765516 -0.0002196830794918782 -0.0002587499102346906 
-0.0004562632150034532 0.0002891190875762351 -0.0002719409599339459 -8.471427445916417e-05 0.0005014336447533148 0.0002359357034224443 
-0.001067958375056699 8.508048315858009e-05 3.24892737032099e-05 -8.112211692394818e-05 0.0003102530497625955 -5.576338419859965e-05 
0.0003897158074967827 -3.714584869535284e-05 -1.163860042591725e-08 -2.988689048807591e-05 -0.0001062538297264819 0.0002702831209825125 
0.0001083058373206595 0.0004862567505962479 -0.0001548797932287243 5.364468311444277e-07 -9.620269925277488e-05 0.0001986437705101188 
0.0001699534732690933 0.0002080037948073719 -9.837426564364887e-05 -0.0002311503520532828 -6.939807572666335e-05 1.977771381588232e-05 
0.0006307891349060618 0.0003942206150468056 -0.0001938675885995852 4.718344446038846e-05 -0.000183568144564618 3.711443216567152e-05 
0.0006502184251336149 -0.0005960784916210346 -0.0001123099806797464 0.0001771877617716772 0.0006306525112722053 -2.940857691448881e-05 
-0.0004527821639250251 0.0002264025615978771 -0.0001019787740818857 0.0001982951052865807 -0.0002226306440566103 0.0002047636508510992 
-0.0005194681394942793 -0.0001695385760126861 0.0001274271164394675 0.0001019962978146853 0.0003001128224337784 -0.0004276535029139703 
-0.001008683362150872 0.0003286629903508133 -0.0002383564369213836 -8.370979758286368e-05 0.0001483263970972419 0.0003146431077440076 
0.0008141288860992699 7.257207858709069e-05 -0.0001003016203297459 -0.0002435793907604137 0.000411065898876404 -5.539922532156365e-05 
0.0001147699873770448 0.0003349842052755201 -0.0002773264554295921 0.0005206914217989454 3.91737457467594e-05 -0.0001561821325994317 
-0.0003713276868879675 -7.116078043599829e-05 -1.694671664706595e-05 -5.099644840338818e-05 0.000191662580823299 -0.0002536778306197414 
0.0006112937142973127 -6.077791035977887e-05 -2.320844110221695e-05 0.0001062472650934985 0.0004324166945062849 0.0001878804081431676 
-8.898089942627915e-05 0.0001739107622806717 -0.0002193444348324893 0.0002093868565253861 -0.0001772458358347085 -0.0002614135398447847 
7.217788160517672e-05 -0.0001072396349522253 -5.278976713907548e-05 0.00033740898916508 -0.0002316014484384243 4.838933152066786e-06 
-0.001630338304861159 -0.0005021334850859249 7.761135592213416e-05 5.219183297976871e-05 0.0004586380323503888 0.0003747924090974217 
-0.0007562013060843641 0.000129007716609972 -0.0001560636634564339 -2.296976169321324e-05 0.0003771415356166084 7.105637638151908e-05 
0.001132681365666656 0.0004226380678923608 -0.0002537690066905807 0.0003775330041728269 7.28133433125946e-05 -0.0008801137531235549 
0.0006924749023254814 4.115410405924571e-05 -0.0001305408175268378 9.98342290577762e-05 7.799565714243288e-05 0.0002316081755197318 
0.0004351204398945669 -0.0003021947701540882 -0.0001417280759489065 0.0003480079686276655 -0.0001881785993041452 -0.0003184870126822443 
0.0006132097191983659 3.65900070008041e-05 -9.076611496677196e-05 -6.698120898024632e-06 -0.0001202656455931868 0.0002243610939676377 
-0.000163976063928044 -0.0001638827535610679 -7.937527311255435e-05 0.0003720030647370715 1.818241222041248e-05 -0.0001566809625875011 
-0.0002590130093990579 -3.200503742010334e-05 -6.666088259679517e-05 0.000234627722717863 -0.0001044565708227254 3.539597765470931e-05 
5.628915119137862e-05 -0.0007517258802743237 0.0001981345321323788 0.0001807544186760718 0.0001256901693579064 7.831345333514776e-05 
-0.000410950971158868 -4.300337767405891e-05 -0.0001046289301632669 0.0001265598005009359 0.0002495907139134675 0.0001853121129955156 
-0.0002510846968024032 0.0004694500546445496 -6.91243686939788e-05 -9.321670463204917e-05 0.0001912058944151877 -0.0004030703793199739 
0.001590386862923248 0.0004034257161741619 -0.0001166131002448051 -3.431003759439691e-05 -0.0001892121672864315 -0.0002356933171648201 
-0.0003067892570711242 -0.0002759547268019006 -1.115082074339939e-05 0.0002809049624209779 -1.13308778664922e-05 0.0001526713386363228 
0.001037143784848357 0.0001093116423458941 -0.0001560974015923559 -7.243721186254187e-05 8.006454908519604e-05 0.0001830085477570489 
-0.0004587599045299315 -0.0001968594086922094 -0.0001015863155211091 0.0004451825152063027 -0.000105351768596324 9.247429419132065e-05 
-3.457261090215246e-07 0.0005128308483602274 -7.952522143657517e-06 -0.000215145713565847 4.591708109295105e-05 -0.0002828549202841945 
-2.379947472107204e-05 -4.537619609688086e-05 6.652701480246649e-05 0.0001009909947678975 0.0001803295364090938 1.204468176396333e-05 
0.0004118177870046457 -0.0001645909795687758 -0.0001107999083159446 8.743885317346715e-06 -0.0002488932916329521 -5.422431214948866e-05 
0.0007795750851314931 0.0001257047454570752 -0.000105819977597167 0.0002089539083494077 -3.754008216344796e-06 -0.000336416058983395 
-0.0003652792355454357 5.331239730059957e-05 -5.511400259101737e-05 0.0002541359425996775 -6.446328144901771e-05 -0.0001957203425239585 
-0.0001357595921456505 0.0002921642238572017 -0.000143165075516184 -0.0002170658999129387 0.0001073511404932391 -0.0002507569974462672 
0.001246652971400016 -5.56552425562157e-06 3.396591503879956e-05 -7.393443629893159e-05 -0.0001404903489746052 1.892482217415033e-05 
-5.834275655095881e-05 0.0002068241145003556 4.611469586140174e-06 -0.0001479817714811991 -3.699992381652078e-05 2.972315444820046e-05 
0.0005488200398300005 8.122795776806481e-05 -9.543310743237842e-05 0.0006014031272328971 -8.171813491603451e-06 -0.0001847328355517617 
-0.0005114746763083908 -0.0002331089931061591 0.0001731596638205207 0.0002107685238482438 -0.0002076359164588575 -0.0001660594006138238 
-0.000247026415469524 -5.04676045347987e-05 -0.0001485425560760163 0.0002480859786070467 -1.981503035234211e-05 -9.5888759644217e-05 
2.923437727596958e-05 0.0001820297024574849 -1.479207944741108e-05 -0.0001600743171187449 -9.723427669903043e-05 0.0004585534126196253 
-0.0006104523904314766 -1.569496286717125e-05 -6.821346435671135e-05 0.0001132481517590423 -8.939049904494869e-06 -6.240389564770173e-05 
-0.0009455017460691382 -0.0004014229645772191 9.179161179862817e-05 0.0003102615688436524 -8.692480160611146e-07 0.0005392989157661463 
0.001634313313558036 0.0003385921320629737 -0.0001774040456074518 0.0003872073181967811 -0.0001586877819546989 -2.346940532565461e-06 
-0.0003724195882799945 0.0001299477547516962 -7.801701724952341e-05 -0.0001077173043295204 -2.773047918664528e-05 1.311066897215737e-05 
-0.0003285937404309698 -8.598942034768498e-05 0.0002297556173680417 9.3890148268318e-05 -7.783907783718286e-05 7.779892504557713e-05 
-0.0004921439882741228 -0.000101183533340008 -1.375763296529112e-05 0.000142982601584669 6.375777056447039e-06 0.000117368317075329 
0.000636412833854511 0.0002825996959155101 -2.507546163266332e-05 -0.0003077773583835619 -3.37748860926045e-05 -0.0001026717131064245 
0.001070157177429237 0.000167097382504825 6.489633186364656e-05 -3.031428499085486e-05 -0.0001746603500654679 -0.00043668353185209 
-0.001150521433484756 3.274985416584791e-05 -0.0001326970506091089 0.000158514263806269 1.746859172690517e-05 0.0003542054127531964 
-0.000470519128585949 0.0002866641247984871 7.676932716930556e-05 -8.053194983271645e-05 -0.0002077053377185588 7.155857921087308e-05 
3.500407712786723e-06 -1.267606145109178e-05 -2.142784329197722e-05 0.0001659445512299405 -0.0001251314346205554 0.0003567227078081048 
-0.0005471747652684572 -0.0001402456272184157 -0.0001920125602614949 5.211486416024454e-05 7.337182761963859e-05 0.0001186205793328427 
-0.0003505493725131605 -6.341145601390484e-05 0.0001678893218602334 -0.000146481325723111 -0.0002228479844732275 9.33154011059148e-05 
-0.0005455082916130762 -0.0002133328558358337 0.000289431554520134 0.000243718876637746 -0.0001252925303150331 8.726924436764497e-05 
0.0008323011455152467 -0.0001183107852734408 -0.0001300413302093666 0.0003030218517284815 -7.799878391849394e-05 -0.0009407749284719813 
0.0004537083528502372 0.00030481279677533 -5.487779716936544e-08 -0.0001927905518898094 -9.003185576335777e-05 0.0009494152810919229 
-0.0003994329725323223 0.0002974130669603673 0.0001724573712996598 -2.595679732986279e-05 -9.252868129437688e-06 2.651589239733478e-05 
-0.0002724159949082487 0.0001226914409621768 6.841474604208588e-05 0.0001277986641629976 -6.12090642836847e-08 7.058237956364352e-05 
-0.0002367509354576686 5.628227669348683e-05 0.0002500142321362162 8.172581197816025e-05 -0.0001181596663500223 -6.116416085989436e-05 
-0.0006426842848094441 -0.0002237179986376208 -2.60594044372787e-05 0.0001895402257168551 5.532530128919298e-05 0.0002741252171581626 
-0.0005457154577950724 0.0003584333499806342 -1.195617860360001e-05 -0.0003853577939552896 -0.0004337846774884511 0.0001590310322252363 
-0.0004077405116415919 -0.000204533757746825 0.0001187583677151955 3.657726447631989e-05 -3.944151556548689e-05 -0.0001853347032698328 
9.784582715151168e-05 0.0004091919446128019 -0.0001436900556870031 -7.725957970699028e-06 -4.474104404285529e-05 0.0002496876978633915 
0.0005482481818333304 0.0001574605669913994 -7.576055425604094e-05 -0.0001684324376094708 -0.0001250858388573287 0.0003836069824235971 
-0.0004172228608599188 -4.477306172445856e-05 0.0002169962995669163 -0.0002331791871414536 -9.548923737289436e-05 0.0002103059698080706 
-0.0002965056238622733 -0.0002167438082031725 -2.900872489588819e-05 0.0003042373521962824 -1.127155912866389e-06 0.0001377287639918774 
-0.001011598407071967 -0.0002187078615902493 -4.730594522128216e-05 0.0001910103627091207 -8.605543127797419e-05 0.0003752952102848495 
-0.0006709425790463694 0.000466292294332045 0.0001316683354708271 -0.0005702214700753638 5.8102383518025e-05 1.175434474376136e-05 
-0.0006497546293666472 -4.511396046018043e-05 0.000361992111361098 9.454775222145316e-05 -0.0002783824090439203 0.000178044150882486 
-0.0003453297168212848 3.408565347919698e-05 -9.012325136815459e-06 -1.201582275377799e-05 -8.041844921049325e-05 6.666611163685551e-05 
0.0008233564089386608 -4.44760872042623e-05 0.0004166373809803725 -0.0001070948508373199 -0.0001048147353533789 0.0003534071813503564 
-0.0004635883518950676 0.0004131854655062143 -7.572548683814423e-05 -0.0001740491752772172 -1.842559659949675e-07 0.0003111425175920805 
0.0002725728713295301 -0.0001226857886395503 0.0002429663438250672 -0.0001532152180093821 -0.000277960072216239 -0.0003124391787933543 
-0.0001539839376154762 0.0001610947550774977 6.069669832735586e-09 -0.0001053346343451034 -1.571252493601938e-07 -0.0001313584452336826 
-0.0004460129464710212 1.814523712332322e-05 -0.0001321142937800402 0.0003809002065423811 -0.0001086474782058762 0.0003111620053605819 
-0.0009925951207592053 -7.515898571770451e-05 0.000294644586275846 -0.0001433083108506393 -5.467369118622623e-06 0.0001133662866213426 
-0.000825479843474156 0.000386668440262007 0.0001902782901075399 -0.0002077426614120913 -0.0002708708031425452 0.0003200276412392744 
-0.0001605681226342209 -0.0002553234295394874 -4.975596390991684e-06 0.0001977715545223417 -5.507576376016532e-05 -0.0001451945904200433 
0.001116956255280057 0.0003253767689332813 -7.572535143013926e-05 -0.0001951557038342605 -7.596501167083544e-05 -0.0002003098054418651 
-0.0007041060937372705 -9.215804417328e-05 0.000351894773825013 -0.0001025512782206786 -9.62003993129148e-06 0.0008968602082885612 
-3.195735465081356e-05 -0.0001183643761165864 0.0004080353713915977 -0.0002662720575185775 -0.0003658939190812191 -5.606911006008956e-05 
-0.0007678477966263078 0.0003458585385229322 -0.000123021031846914 0.0001222425219410853 -6.874072302693361e-05 1.944740297225321e-05 
-0.0003107947705856654 -0.0001670772973000299 3.420724293870684e-05 -1.123532268696163e-05 -9.97449128181986e-05 0.0004142130649517344 
